svm_type c_svc
kernel_type rbf
gamma 0.0078125
nr_class 5
total_sv 7516
rho -3.24565369734278 -2.66507295216065 -3.9304102999067085 -1.3946910242229569 0.4113962352617772 -1.0398118474209437 -0.9734752768128024 -1.0382512207888153 -0.6672531380803537 -0.5752151560201986
label 4 1 2 3 5
nr_sv 2271 1871 1816 1454 104
SV
8.0 8.0 8.0 0.0 64:1.0 65:1.0 82:1.0 89:1.0 97:1.0 149:1.0 151:1.0 793:1.0 23922:1.0 
0.0 1.6393489573532656 2.7504588076997956 0.0 3:1.0 25:1.0 26:1.0 28:2.0 39:2.0 64:1.0 149:1.0 151:1.0 189:1.0 263:1.0 279:1.0 325:1.0 366:1.0 730:1.0 1059:1.0 2056:1.0 2630:1.0 3447:1.0 5135:1.0 5236:1.0 12555:1.0 15926:1.0 27407:1.0 
8.0 8.0 8.0 0.0 28:1.0 56:1.0 100:1.0 151:1.0 278:1.0 470:1.0 883:1.0 1364:1.0 10884:1.0 
0.16335104302373837 4.909541695302686 0.0 0.1567519726356229 3:1.0 12:1.0 14:1.0 15:1.0 26:2.0 28:6.0 39:1.0 50:1.0 53:1.0 56:2.0 66:1.0 97:1.0 99:2.0 265:1.0 602:1.0 604:1.0 822:1.0 869:1.0 2187:1.0 10371:1.0 42140:1.0 
0.0 0.0 3.921487391963129 0.0 26:2.0 32:2.0 36:1.0 66:1.0 134:1.0 158:1.0 174:1.0 2544:1.0 3622:1.0 
5.63545200080565 3.816649043284423 2.367338786827693 0.0 14:1.0 15:1.0 26:1.0 72:1.0 74:1.0 97:1.0 100:3.0 106:1.0 107:1.0 134:1.0 145:1.0 239:1.0 263:2.0 265:1.0 452:1.0 610:1.0 680:1.0 984:1.0 1592:1.0 1658:1.0 3519:1.0 13036:1.0 
8.0 0.0 0.0 0.0 14:1.0 15:1.0 25:1.0 26:1.0 29:1.0 56:1.0 100:1.0 145:1.0 177:1.0 207:1.0 430:1.0 585:1.0 1051:1.0 1547:1.0 4519:1.0 
0.0 0.0 0.030258240766898068 0.0 26:1.0 28:6.0 50:1.0 72:1.0 90:2.0 92:1.0 97:1.0 142:1.0 217:1.0 284:1.0 652:1.0 793:1.0 1592:1.0 29335:1.0 39299:1.0 41296:1.0 41297:1.0 
0.0 1.0256110181393625 0.0 0.0 4:2.0 9:1.0 14:1.0 15:1.0 29:1.0 39:1.0 92:2.0 109:1.0 145:1.0 162:1.0 223:1.0 326:1.0 356:1.0 1902:1.0 2511:2.0 6934:1.0 10009:3.0 
8.0 8.0 8.0 0.4325683402123443 14:1.0 15:1.0 17:1.0 26:1.0 32:1.0 100:1.0 105:1.0 217:1.0 267:1.0 367:1.0 562:1.0 673:1.0 949:1.0 1512:1.0 5396:1.0 
2.8521546920463354 8.0 0.0 0.0 3:2.0 14:1.0 15:1.0 29:1.0 32:1.0 50:1.0 74:1.0 82:1.0 90:1.0 97:1.0 136:1.0 167:1.0 173:1.0 217:1.0 249:1.0 367:1.0 495:1.0 552:1.0 554:1.0 917:1.0 1397:1.0 1698:1.0 3268:1.0 4960:1.0 11387:1.0 
5.026009645536344 8.0 2.1609867920652226 0.0 7:1.0 26:1.0 28:2.0 30:1.0 34:1.0 56:1.0 90:1.0 92:1.0 171:1.0 190:1.0 217:1.0 266:2.0 278:2.0 334:1.0 487:1.0 645:1.0 694:2.0 805:1.0 815:1.0 1964:1.0 3920:1.0 12678:1.0 16973:1.0 
0.0 0.0881590024931206 0.0 0.0 11:1.0 30:1.0 46:1.0 66:1.0 74:1.0 159:1.0 202:1.0 205:1.0 341:1.0 440:1.0 494:1.0 2505:1.0 12701:1.0 17953:1.0 37505:1.0 
3.5475496809424465 8.0 2.0918479705938933 0.0 3:1.0 14:1.0 15:1.0 34:1.0 39:1.0 59:1.0 66:1.0 74:1.0 92:2.0 97:1.0 182:1.0 187:1.0 236:1.0 249:1.0 286:1.0 367:1.0 430:1.0 554:1.0 620:1.0 670:1.0 836:1.0 2702:1.0 3341:1.0 3384:1.0 3506:1.0 5984:1.0 
0.0 1.8008735570118535 0.0 0.0 11:2.0 23:1.0 25:1.0 26:1.0 28:2.0 31:1.0 34:2.0 92:1.0 97:4.0 100:1.0 110:1.0 142:2.0 143:1.0 182:1.0 236:1.0 255:1.0 279:1.0 294:1.0 295:1.0 754:1.0 852:1.0 2653:1.0 
6.7269975236751245 8.0 8.0 0.0 11:1.0 26:1.0 51:1.0 169:1.0 5520:1.0 
6.842363694095248 2.399024163106076 3.032943212146372 0.0 9:2.0 22:1.0 28:2.0 32:2.0 50:1.0 68:1.0 92:1.0 97:2.0 142:2.0 145:1.0 151:1.0 182:1.0 183:1.0 263:1.0 283:1.0 286:1.0 316:1.0 365:1.0 367:1.0 423:1.0 444:1.0 620:1.0 674:1.0 948:1.0 1082:1.0 1418:1.0 1546:1.0 1908:1.0 16710:1.0 
0.0 8.0 0.4471267576517423 0.0 11:1.0 26:1.0 30:1.0 39:1.0 90:1.0 134:1.0 143:1.0 171:1.0 218:1.0 1560:1.0 2258:1.0 3372:1.0 3402:1.0 
0.0 0.0 8.0 0.0 3:1.0 11:1.0 50:3.0 134:1.0 306:1.0 
8.0 8.0 8.0 0.0 14:1.0 15:1.0 26:1.0 43:1.0 56:1.0 97:1.0 101:1.0 110:1.0 142:1.0 180:1.0 249:1.0 407:1.0 718:1.0 1321:1.0 9937:1.0 
8.0 8.0 0.0 0.32106332755447997 14:1.0 15:1.0 30:3.0 32:1.0 47:1.0 97:1.0 105:1.0 145:2.0 151:1.0 217:1.0 407:1.0 433:1.0 593:2.0 599:1.0 1097:1.0 1257:1.0 5254:1.0 
8.0 0.0 8.0 0.41092349031248365 14:1.0 15:1.0 26:1.0 32:1.0 50:4.0 97:1.0 142:1.0 217:1.0 652:1.0 6836:1.0 
0.0 2.0659182718064604 3.7273068576791055 0.0 149:1.0 255:1.0 263:1.0 437:1.0 1417:1.0 1428:1.0 11290:1.0 15075:1.0 
0.0 0.9138047747385611 0.0 0.0 3:1.0 11:1.0 14:2.0 15:2.0 22:1.0 26:1.0 30:1.0 50:1.0 68:1.0 92:1.0 145:1.0 217:1.0 249:1.0 253:1.0 331:1.0 343:1.0 356:1.0 367:1.0 736:1.0 2312:2.0 5535:1.0 11964:1.0 
7.38585849879631 8.0 0.14300987483058672 2.0776810414182596 66:1.0 1002:2.0 4512:1.0 10430:1.0 15022:1.0 19392:1.0 
8.0 8.0 8.0 0.0 13:2.0 25:1.0 50:4.0 92:1.0 137:1.0 187:1.0 852:1.0 
0.0 0.0 4.187853765406808 0.0 9:1.0 29:1.0 50:1.0 51:1.0 90:1.0 92:1.0 97:1.0 109:1.0 180:1.0 255:1.0 263:1.0 381:1.0 548:1.0 774:1.0 1506:1.0 3064:1.0 4546:1.0 5099:1.0 5265:1.0 5337:1.0 5660:1.0 6398:1.0 7021:1.0 
8.0 0.0 0.0 0.0 50:1.0 64:1.0 207:1.0 263:1.0 555:1.0 1051:1.0 1768:1.0 2747:1.0 
2.121308784795282 0.0 0.0 0.0 9:1.0 13:2.0 21:1.0 22:1.0 26:1.0 28:6.0 34:1.0 56:1.0 82:1.0 232:1.0 278:2.0 284:1.0 580:1.0 888:1.0 1001:1.0 2349:1.0 2367:1.0 4004:1.0 42554:1.0 
0.0 8.0 2.737287478933836 0.0 3:1.0 11:1.0 25:1.0 28:2.0 217:1.0 218:1.0 356:1.0 413:1.0 648:1.0 1219:1.0 1879:1.0 5532:1.0 
1.4062331437229136 6.6188816269806106 0.0 0.0 3:1.0 11:1.0 28:2.0 39:1.0 56:1.0 92:1.0 106:1.0 133:1.0 151:1.0 217:1.0 295:1.0 367:1.0 476:1.0 719:1.0 952:1.0 989:1.0 1715:1.0 1737:1.0 2677:1.0 4270:1.0 5369:1.0 
8.0 0.0 0.0 0.0 7:1.0 14:1.0 15:1.0 175:1.0 177:1.0 207:1.0 278:1.0 356:1.0 620:1.0 864:1.0 1002:2.0 
0.0 8.0 8.0 0.0 3:1.0 14:1.0 15:1.0 134:1.0 227:1.0 
8.0 0.0 0.5314410171107921 1.62559283714753 13:1.0 14:1.0 15:1.0 21:1.0 22:1.0 68:1.0 106:1.0 298:1.0 367:1.0 948:1.0 1002:2.0 1715:1.0 3710:1.0 13968:1.0 
0.0 0.0 8.0 0.0 32:1.0 36:1.0 56:1.0 74:1.0 106:1.0 134:1.0 171:1.0 183:1.0 227:1.0 907:1.0 983:1.0 
2.714626634670746 6.0673160759638005 3.4559925078126192 0.0 14:1.0 15:1.0 26:2.0 29:1.0 53:1.0 92:1.0 94:1.0 97:1.0 177:1.0 183:1.0 200:1.0 362:1.0 375:1.0 430:1.0 470:1.0 741:1.0 1052:1.0 1464:1.0 1895:1.0 2868:1.0 3050:1.0 4745:1.0 6563:1.0 12283:1.0 
8.0 8.0 0.0 0.48576592955009257 28:2.0 142:1.0 205:1.0 217:1.0 510:1.0 619:1.0 620:1.0 649:1.0 652:1.0 807:1.0 921:1.0 1028:2.0 1454:1.0 2820:1.0 7512:1.0 
0.0 2.194735437137156 0.0 0.0 14:1.0 15:1.0 18:1.0 21:1.0 22:1.0 25:1.0 31:1.0 32:1.0 50:4.0 92:3.0 97:1.0 106:2.0 142:1.0 145:3.0 158:1.0 163:1.0 227:1.0 255:1.0 263:1.0 295:1.0 362:1.0 394:1.0 577:1.0 970:1.0 1235:1.0 1460:1.0 3362:1.0 3865:1.0 9042:1.0 
0.0 0.04129374952420806 0.0 0.0 7:1.0 13:1.0 28:2.0 29:2.0 109:1.0 143:1.0 255:1.0 315:1.0 367:1.0 1436:1.0 1597:1.0 2255:1.0 3035:1.0 3279:1.0 5575:1.0 6411:1.0 8677:1.0 10066:1.0 11086:1.0 20634:1.0 32095:1.0 40955:1.0 
2.488011517037997 0.8035304164574313 1.7401736293195371 0.0 14:1.0 15:1.0 22:1.0 26:1.0 28:2.0 29:1.0 32:3.0 56:2.0 107:1.0 165:1.0 171:1.0 217:1.0 263:1.0 364:1.0 374:1.0 442:1.0 494:1.0 830:1.0 922:1.0 1200:1.0 1905:1.0 2268:1.0 2323:1.0 2579:1.0 6719:1.0 10705:1.0 25891:1.0 
5.516536633367722 7.228128912060862 0.0 0.0 3:2.0 14:1.0 15:1.0 26:1.0 28:2.0 56:1.0 217:1.0 249:1.0 353:1.0 374:1.0 455:1.0 516:1.0 532:1.0 652:1.0 921:1.0 2821:1.0 5132:1.0 6754:1.0 7180:1.0 7512:1.0 12713:1.0 31841:1.0 
4.7970098911518395 8.0 1.5288087435005437 0.4329179203311653 14:1.0 15:1.0 26:1.0 39:1.0 66:1.0 90:1.0 221:1.0 367:1.0 793:1.0 1236:1.0 1613:1.0 2089:1.0 2360:1.0 5193:1.0 12694:1.0 
2.6914297476201474 8.0 0.0 0.0 3:2.0 12:1.0 13:1.0 14:3.0 15:3.0 28:6.0 39:1.0 109:1.0 162:1.0 236:1.0 249:1.0 255:1.0 263:1.0 266:1.0 278:1.0 739:1.0 3276:1.0 5355:1.0 6383:1.0 6384:1.0 
1.8835060985879837 2.818465989254803 1.4260404090527548 0.0 14:1.0 15:1.0 29:1.0 56:1.0 64:1.0 65:1.0 82:1.0 89:1.0 97:2.0 106:1.0 138:1.0 249:1.0 375:1.0 452:1.0 470:1.0 864:1.0 1357:1.0 1465:1.0 4118:1.0 8465:1.0 9747:1.0 36534:1.0 
5.848373829371062 4.347388282471755 0.0 0.0 14:1.0 15:1.0 21:1.0 22:1.0 28:2.0 29:1.0 56:1.0 82:1.0 100:1.0 182:1.0 748:1.0 1462:1.0 1503:1.0 2025:1.0 2392:1.0 11888:1.0 12166:1.0 
8.0 0.0 8.0 3.010252552319673 22:1.0 26:1.0 29:1.0 47:1.0 49:1.0 50:1.0 100:1.0 278:1.0 436:1.0 446:1.0 840:1.0 899:1.0 1001:1.0 1560:1.0 3300:1.0 4319:1.0 
0.7259737485584385 0.0 3.8423021949705882 0.0 14:1.0 15:1.0 26:1.0 28:2.0 32:1.0 97:1.0 106:1.0 145:1.0 183:2.0 202:1.0 217:1.0 265:1.0 331:1.0 367:1.0 428:1.0 602:1.0 
0.0 0.0 4.477912185886812 0.0 9:1.0 13:1.0 26:1.0 134:1.0 839:1.0 35667:1.0 35668:1.0 35669:1.0 
3.521334260249059 0.0 4.269289042823 0.0 13:1.0 28:2.0 29:2.0 32:1.0 39:1.0 50:1.0 61:2.0 82:1.0 92:1.0 97:2.0 217:1.0 286:1.0 510:1.0 640:1.0 934:1.0 1132:1.0 1364:1.0 1970:1.0 2048:1.0 2049:1.0 3128:1.0 3542:1.0 8728:1.0 11419:1.0 42718:1.0 
2.94180353512902 2.2326784055289326 0.0 0.0 14:1.0 15:1.0 22:1.0 28:2.0 34:1.0 50:3.0 60:1.0 63:1.0 64:2.0 65:2.0 68:1.0 92:1.0 97:3.0 106:1.0 107:1.0 117:1.0 142:1.0 150:1.0 159:1.0 200:1.0 249:1.0 304:1.0 410:1.0 411:1.0 412:1.0 413:1.0 414:1.0 415:1.0 
0.0 0.1693396464333705 0.0 0.0 3:2.0 14:1.0 15:1.0 56:1.0 64:4.0 65:4.0 89:1.0 158:1.0 161:1.0 207:1.0 249:1.0 414:2.0 788:2.0 4203:1.0 4561:1.0 6551:1.0 13248:1.0 19294:1.0 19609:1.0 38965:1.0 38966:1.0 38967:1.0 
0.0 0.0 1.5363189216661242 0.0 28:2.0 43:1.0 56:1.0 84:1.0 90:1.0 92:3.0 100:1.0 145:1.0 174:1.0 183:1.0 255:1.0 278:1.0 284:1.0 365:1.0 525:1.0 570:1.0 597:1.0 807:1.0 907:1.0 1464:1.0 1943:1.0 2175:1.0 2410:1.0 5471:1.0 6714:1.0 8312:1.0 24131:1.0 
8.0 8.0 8.0 1.5249083626315219 13:1.0 23:1.0 39:1.0 65:1.0 100:1.0 174:1.0 183:1.0 207:1.0 265:1.0 562:1.0 2004:1.0 4327:1.0 
0.0 0.0 0.0 0.00339061786982667 3:1.0 50:1.0 66:1.0 90:1.0 92:1.0 112:2.0 255:1.0 378:1.0 619:1.0 852:1.0 1994:1.0 2395:1.0 2419:1.0 2579:1.0 3446:1.0 5078:1.0 5764:1.0 15628:1.0 15629:1.0 15630:2.0 
0.0 2.0832039619003098 8.0 0.0 29:1.0 134:1.0 2252:1.0 3622:1.0 
0.0 0.623301553409954 0.472087599517946 0.0 3:1.0 11:1.0 13:1.0 70:1.0 134:1.0 149:1.0 222:1.0 227:1.0 232:1.0 263:2.0 523:1.0 825:1.0 859:1.0 2392:1.0 7262:1.0 33163:1.0 36438:1.0 
4.16438319835284 8.0 4.729214145221203 1.0618543111421377 13:1.0 28:2.0 32:1.0 56:2.0 90:1.0 97:1.0 100:1.0 109:1.0 189:1.0 284:1.0 336:1.0 374:1.0 1085:1.0 1547:1.0 1613:1.0 10214:1.0 14019:1.0 16991:1.0 
2.43723711931378 8.0 0.0 0.0 211:1.0 7184:1.0 
8.0 8.0 8.0 0.9510778127620603 9:1.0 11:1.0 22:1.0 26:1.0 64:1.0 68:2.0 90:1.0 92:1.0 217:1.0 304:1.0 550:1.0 1330:1.0 1480:1.0 2667:1.0 4191:1.0 
2.7166902734540628 0.0 1.420843183022068 0.22899215158628344 3:1.0 9:1.0 14:1.0 15:1.0 23:1.0 32:1.0 33:1.0 50:2.0 68:1.0 92:1.0 107:1.0 109:1.0 142:1.0 146:1.0 374:1.0 799:1.0 832:1.0 849:1.0 1366:1.0 2090:1.0 2091:1.0 
0.0 2.012286941909817 8.0 2.6566289634105136 11:1.0 15:1.0 26:2.0 56:1.0 64:1.0 67:1.0 149:1.0 150:1.0 159:1.0 173:1.0 180:1.0 587:1.0 689:1.0 1228:1.0 1871:1.0 4315:1.0 6393:1.0 11116:1.0 11117:1.0 
8.0 8.0 8.0 0.0 13:2.0 39:1.0 50:1.0 137:1.0 263:1.0 367:1.0 8695:1.0 9117:1.0 33563:1.0 
8.0 6.2821741267875 0.0 0.056123569741228764 9:1.0 26:1.0 39:1.0 150:1.0 200:1.0 202:1.0 207:1.0 602:1.0 738:1.0 1015:1.0 1140:1.0 1399:1.0 1586:1.0 2260:1.0 6978:1.0 9996:1.0 20411:1.0 
0.0 0.0 0.0 0.3281173255084738 14:2.0 15:2.0 22:1.0 32:1.0 43:1.0 56:1.0 106:2.0 145:1.0 146:1.0 158:1.0 177:1.0 265:1.0 360:1.0 365:1.0 555:1.0 585:1.0 2091:1.0 3464:1.0 4064:1.0 18145:1.0 
0.0 8.0 0.0 0.0 3:1.0 13:1.0 14:1.0 15:1.0 28:2.0 39:1.0 64:2.0 66:1.0 175:1.0 249:1.0 271:1.0 378:1.0 424:1.0 1110:1.0 1295:1.0 1620:1.0 1765:1.0 2723:1.0 3424:1.0 4788:1.0 42027:1.0 
0.0 0.0 4.994510308348174 0.0 3:2.0 14:1.0 15:1.0 28:2.0 29:1.0 30:1.0 39:1.0 66:1.0 97:3.0 146:1.0 249:1.0 315:1.0 644:1.0 1087:1.0 1400:1.0 3935:1.0 4968:1.0 6236:1.0 7420:1.0 24388:1.0 25709:1.0 34894:1.0 41199:1.0 41200:1.0 
8.0 8.0 8.0 3.5047353631384888 3:1.0 13:1.0 14:1.0 15:1.0 26:1.0 73:1.0 217:1.0 249:1.0 3390:1.0 41508:1.0 
8.0 8.0 4.197057799060431 0.0 28:1.0 39:1.0 49:1.0 50:1.0 68:1.0 136:1.0 291:1.0 618:1.0 1320:1.0 4453:1.0 
0.0 7.2452029791212125 0.0 1.3170443989313199 13:1.0 109:1.0 142:1.0 585:1.0 663:1.0 1243:1.0 4319:1.0 19060:1.0 
0.0 0.0 1.9639523156492722 0.0 9:2.0 11:1.0 13:2.0 26:3.0 30:1.0 56:1.0 68:1.0 110:1.0 134:1.0 189:1.0 255:1.0 266:1.0 371:1.0 411:1.0 426:2.0 669:1.0 3616:1.0 5201:1.0 9701:1.0 14169:1.0 
2.533244676870129 1.8441207488944096 0.0 1.5546590475341093 26:1.0 29:1.0 39:1.0 56:2.0 66:2.0 106:3.0 182:1.0 255:1.0 367:1.0 378:1.0 505:1.0 519:1.0 525:1.0 554:1.0 913:1.0 1023:1.0 1686:1.0 2228:1.0 3956:1.0 13595:1.0 14989:1.0 
0.0 6.164854708441101 0.0 0.0 3:3.0 11:1.0 25:1.0 28:2.0 34:1.0 92:1.0 202:1.0 271:1.0 477:1.0 620:1.0 621:1.0 754:1.0 1651:1.0 2176:1.0 3567:1.0 3965:1.0 5369:1.0 5452:1.0 5859:1.0 
0.0 8.0 0.0 0.0 3:1.0 11:1.0 13:2.0 25:1.0 29:1.0 90:1.0 109:1.0 565:1.0 1019:1.0 1475:1.0 2133:1.0 2151:1.0 6958:1.0 33805:1.0 
8.0 8.0 7.795418838682504 2.259645667132004 13:1.0 50:1.0 142:1.0 375:1.0 783:1.0 799:1.0 22518:1.0 
1.8768097487228828 8.0 1.1229603439424756 0.0 3:1.0 14:2.0 15:2.0 22:1.0 26:1.0 39:1.0 64:1.0 161:1.0 243:1.0 249:1.0 266:1.0 375:1.0 503:1.0 798:1.0 2031:1.0 2289:1.0 2290:1.0 2291:1.0 2292:1.0 2293:1.0 
0.061456960046116955 1.9019699479140704 0.0 0.0 9:2.0 12:1.0 26:3.0 32:1.0 45:1.0 106:1.0 134:1.0 139:1.0 180:1.0 585:1.0 888:1.0 1051:1.0 1132:1.0 1419:1.0 1929:1.0 
1.2799932902683846 8.0 2.0823522602560756 0.0 11:1.0 13:2.0 29:1.0 39:1.0 90:1.0 175:1.0 217:1.0 601:1.0 645:1.0 815:1.0 1405:1.0 1972:1.0 3932:1.0 7179:1.0 7247:1.0 9309:1.0 18467:1.0 23637:1.0 
8.0 8.0 8.0 0.0 13:3.0 53:1.0 97:1.0 110:1.0 137:1.0 187:1.0 364:1.0 423:1.0 474:1.0 506:1.0 2839:1.0 8338:1.0 8998:1.0 
0.0 2.7229729250311583 0.0 0.0 25:1.0 26:2.0 28:2.0 66:1.0 82:1.0 84:1.0 90:1.0 200:1.0 252:1.0 284:1.0 291:1.0 361:1.0 367:1.0 505:1.0 942:1.0 2301:1.0 24552:1.0 
0.27300114109858803 4.00271511153846 0.9865695998088324 0.0 11:1.0 15:1.0 64:1.0 375:1.0 618:1.0 1987:2.0 3374:1.0 14600:1.0 18324:1.0 19179:1.0 
8.0 8.0 8.0 2.200619982251792 3:2.0 14:1.0 15:1.0 25:1.0 26:1.0 28:2.0 32:2.0 50:1.0 92:2.0 97:2.0 171:1.0 180:1.0 217:1.0 331:1.0 336:1.0 416:1.0 654:1.0 849:1.0 971:1.0 3872:1.0 
2.3452300584986223 0.6957697359370699 3.43864377629907 0.0 3:1.0 14:1.0 15:1.0 26:2.0 28:2.0 34:1.0 39:2.0 51:1.0 107:1.0 217:1.0 249:1.0 291:1.0 323:1.0 367:1.0 494:1.0 649:1.0 1289:1.0 1600:1.0 1655:1.0 1657:1.0 1725:1.0 2147:1.0 3714:1.0 5029:1.0 34094:1.0 
0.0 1.9630852608098561 0.0 0.0 3:1.0 9:1.0 11:1.0 21:1.0 22:1.0 28:2.0 174:1.0 200:1.0 266:1.0 278:1.0 367:1.0 730:2.0 772:1.0 1144:1.0 1695:1.0 1699:1.0 2411:1.0 4311:1.0 7517:1.0 9819:1.0 14032:1.0 16451:1.0 
0.0 0.0 8.0 0.0 14:2.0 15:2.0 50:4.0 51:1.0 97:1.0 106:1.0 149:1.0 255:1.0 887:1.0 936:1.0 938:1.0 1001:1.0 1431:1.0 
3.9307453595911803 8.0 2.3673750619588176 0.0 11:1.0 18:1.0 28:2.0 217:1.0 3300:1.0 6478:1.0 
8.0 8.0 4.63989035573091 0.0 7:1.0 9:1.0 13:1.0 28:2.0 56:1.0 68:1.0 243:1.0 367:1.0 375:1.0 506:1.0 754:1.0 3374:1.0 3477:1.0 8885:1.0 10894:1.0 30775:1.0 41479:1.0 41480:1.0 
0.0 0.5797569985898191 0.0 0.0 3:2.0 11:1.0 28:6.0 29:1.0 65:1.0 90:1.0 109:1.0 182:1.0 278:1.0 426:1.0 471:1.0 878:1.0 907:1.0 1208:1.0 1384:1.0 1597:1.0 2799:1.0 3009:1.0 3301:1.0 3555:1.0 5093:1.0 8910:1.0 42606:1.0 
0.0 8.0 1.566619676760963 0.0 3:1.0 26:1.0 39:1.0 66:1.0 90:4.0 97:1.0 1504:1.0 2033:1.0 2204:1.0 2865:1.0 3515:1.0 7909:1.0 
3.0968828137860935 6.660296746440009 0.0 4.807296181368301 73:1.0 109:1.0 220:1.0 1172:1.0 3429:1.0 26002:1.0 
0.0 0.36527750721645924 0.0 0.0 3:1.0 11:1.0 14:1.0 15:1.0 22:1.0 26:1.0 28:2.0 39:1.0 49:1.0 65:1.0 74:1.0 90:1.0 249:1.0 312:1.0 2343:1.0 2370:1.0 3901:1.0 7505:1.0 10934:1.0 16584:1.0 27789:1.0 39586:1.0 
8.0 8.0 8.0 0.0 9:1.0 11:1.0 25:1.0 28:2.0 90:1.0 92:1.0 97:1.0 101:1.0 107:1.0 180:1.0 407:1.0 645:1.0 826:1.0 875:1.0 4282:1.0 
4.904979911635777 8.0 3.6549540296815 1.2327405321332743 13:3.0 29:1.0 66:1.0 92:1.0 97:1.0 100:2.0 110:1.0 136:1.0 189:1.0 200:1.0 367:1.0 1613:1.0 2130:1.0 3507:1.0 12727:1.0 25434:1.0 29542:1.0 29543:1.0 
7.772167444904105 5.761765403307156 4.849777440883023 0.0 14:1.0 15:1.0 22:1.0 25:1.0 26:1.0 32:1.0 39:1.0 49:1.0 92:2.0 97:2.0 100:1.0 105:1.0 106:1.0 150:1.0 173:1.0 180:1.0 182:1.0 266:1.0 430:1.0 547:1.0 582:1.0 622:1.0 1613:1.0 1908:1.0 1986:1.0 1994:1.0 2076:1.0 2879:1.0 9745:1.0 
0.44859413145365 0.0 0.0 0.0 13:1.0 28:2.0 32:2.0 109:1.0 150:1.0 151:2.0 807:1.0 865:2.0 897:1.0 1599:1.0 1739:1.0 2205:1.0 2620:1.0 3092:1.0 3777:1.0 5332:1.0 11012:1.0 18884:1.0 18885:1.0 
2.835728492909689 8.0 0.0 0.0 3:1.0 7:1.0 11:1.0 13:1.0 92:1.0 145:1.0 163:1.0 202:1.0 217:1.0 252:1.0 356:1.0 446:1.0 570:1.0 620:1.0 892:1.0 1107:1.0 1250:1.0 2472:1.0 3686:1.0 21935:1.0 
0.0 0.0 1.219581599461318 0.0 13:1.0 25:1.0 50:1.0 92:1.0 106:1.0 211:1.0 298:1.0 585:1.0 710:1.0 1029:1.0 1588:1.0 3061:1.0 3579:1.0 7412:1.0 10472:1.0 
0.0 0.0 8.0 0.0 3:1.0 9:1.0 14:1.0 15:1.0 50:3.0 92:1.0 105:1.0 106:1.0 134:1.0 146:1.0 256:1.0 306:1.0 356:2.0 359:1.0 362:1.0 585:1.0 738:1.0 938:1.0 1080:1.0 1086:1.0 1190:1.0 4099:1.0 
6.787751812464836 8.0 0.0 0.7955349373726278 14:1.0 15:1.0 39:1.0 59:1.0 72:1.0 74:1.0 82:1.0 92:1.0 100:1.0 109:1.0 171:1.0 367:1.0 620:1.0 856:1.0 1372:1.0 2029:1.0 3611:1.0 5855:1.0 8295:1.0 11414:1.0 27157:1.0 27158:1.0 
0.0 0.01871932502582671 0.0 0.0 9:1.0 13:1.0 14:1.0 15:1.0 26:2.0 29:1.0 48:1.0 66:1.0 105:1.0 876:1.0 2463:1.0 6261:1.0 6262:1.0 
0.0 0.0 1.4566158992160736 0.0 11:1.0 28:2.0 90:3.0 217:1.0 323:1.0 573:1.0 627:1.0 764:1.0 1909:1.0 5088:1.0 5089:1.0 9277:1.0 14818:1.0 16014:1.0 24553:1.0 
3.9259401818374635 7.522665780364702 1.7268854121594461 0.0 29:1.0 56:1.0 74:1.0 109:1.0 177:1.0 266:1.0 278:1.0 477:1.0 620:1.0 711:1.0 825:1.0 966:1.0 1246:1.0 1856:2.0 2684:1.0 8283:1.0 18680:1.0 19252:1.0 
8.0 8.0 4.1568263908932614 0.0 26:1.0 217:1.0 331:1.0 
8.0 1.2053645036806395 2.4595238649602233 0.053339769971012134 50:2.0 359:1.0 375:1.0 433:1.0 585:1.0 1073:1.0 1320:1.0 1760:1.0 9429:1.0 13694:1.0 
0.0 0.3455092043019701 0.0 0.0 3:1.0 14:1.0 15:1.0 56:1.0 97:1.0 160:1.0 249:1.0 261:1.0 263:1.0 295:1.0 375:1.0 517:1.0 558:1.0 598:1.0 680:1.0 1378:1.0 1943:1.0 2242:1.0 3035:1.0 4797:1.0 6168:1.0 12855:1.0 19427:1.0 19428:1.0 
6.678010234594202 5.953479418904568 8.0 0.8123605591015965 12:1.0 13:3.0 233:1.0 263:1.0 424:2.0 1208:1.0 3841:1.0 7649:1.0 15040:1.0 
0.0 2.172647405875949 0.0 0.0 7:1.0 22:1.0 25:1.0 26:1.0 28:2.0 29:1.0 34:1.0 56:2.0 64:1.0 90:1.0 92:1.0 106:1.0 117:1.0 142:1.0 153:1.0 202:1.0 219:1.0 278:1.0 334:1.0 447:1.0 557:1.0 4158:1.0 4314:1.0 7310:1.0 8252:1.0 14530:1.0 42106:1.0 
0.0 0.23756733600797023 0.0 0.0 3:1.0 11:1.0 14:1.0 15:1.0 21:1.0 22:1.0 50:2.0 68:1.0 90:1.0 100:1.0 142:1.0 253:1.0 343:1.0 809:1.0 883:1.0 2778:1.0 4134:1.0 15536:1.0 15537:1.0 15538:2.0 
0.0 4.425492930686125 0.0 0.0 11:1.0 25:1.0 26:1.0 34:1.0 36:1.0 39:1.0 92:1.0 97:1.0 233:1.0 291:1.0 312:1.0 360:1.0 440:1.0 856:1.0 1514:1.0 2080:1.0 2090:1.0 2333:1.0 2588:1.0 5748:1.0 6331:1.0 
3.8667535330569356 0.0 0.0 0.08312349471988822 14:1.0 15:1.0 22:1.0 29:1.0 50:16.0 56:1.0 97:1.0 100:1.0 117:1.0 142:1.0 173:1.0 253:1.0 340:1.0 758:1.0 1107:1.0 1424:1.0 1465:2.0 
8.0 8.0 5.303674791731564 0.6754441436563622 14:1.0 15:1.0 26:1.0 28:2.0 32:1.0 97:2.0 100:1.0 199:1.0 217:1.0 265:1.0 946:1.0 2165:1.0 2470:1.0 2504:1.0 2744:1.0 3500:1.0 21608:1.0 
7.878466814620303 8.0 8.0 0.0 9:1.0 11:1.0 26:1.0 39:1.0 50:1.0 97:2.0 149:1.0 171:1.0 180:1.0 367:1.0 1169:1.0 1175:1.0 32749:1.0 32750:1.0 
0.0 0.9989856518327149 1.8656608239026118 0.0 7:1.0 13:1.0 26:1.0 28:2.0 64:1.0 92:2.0 132:1.0 142:1.0 180:1.0 236:1.0 493:1.0 1571:2.0 6771:1.0 9999:1.0 10421:1.0 10569:1.0 42730:1.0 42731:1.0 
0.0 3.62836198810912 8.0 0.0 3:1.0 11:1.0 26:1.0 50:1.0 66:1.0 718:1.0 25329:1.0 
7.418142809102871 7.252943616748852 8.0 0.0 9:1.0 23:1.0 26:4.0 28:2.0 29:1.0 97:1.0 142:1.0 149:1.0 151:1.0 263:3.0 336:1.0 367:1.0 412:1.0 833:1.0 1236:1.0 1877:1.0 2169:1.0 2370:1.0 4003:1.0 4638:1.0 4657:1.0 11387:1.0 
8.0 8.0 8.0 6.660367640174615 26:1.0 29:1.0 100:1.0 182:1.0 217:1.0 331:1.0 367:1.0 428:1.0 2046:1.0 2465:1.0 
3.608619910026103 8.0 1.8974033513568227 0.0 11:1.0 28:2.0 64:1.0 65:1.0 102:1.0 217:1.0 462:1.0 1515:1.0 1942:1.0 2612:1.0 9230:1.0 
6.649249572359501 0.2679388690873566 0.0 0.8757349672891841 7:1.0 14:1.0 15:1.0 82:1.0 117:1.0 122:1.0 367:1.0 427:1.0 5346:1.0 42505:1.0 42506:1.0 
0.0 7.718447968902315 0.0 0.0 14:2.0 15:2.0 28:6.0 31:1.0 92:1.0 109:1.0 145:3.0 284:1.0 367:1.0 11285:1.0 
0.0 2.226226319252039 0.0 0.0 3:2.0 11:1.0 13:2.0 14:1.0 15:1.0 50:1.0 149:1.0 249:1.0 323:1.0 1028:1.0 5076:1.0 5264:1.0 13593:1.0 13822:1.0 13823:1.0 
7.909590489636609 8.0 7.06346943904141 0.0 3:1.0 90:3.0 106:1.0 217:1.0 356:1.0 359:1.0 367:2.0 579:1.0 604:1.0 660:1.0 683:1.0 1126:1.0 1698:1.0 2252:1.0 2868:1.0 6679:1.0 
0.0 0.0 3.418740777629814 0.0 18:1.0 22:2.0 23:1.0 26:1.0 28:4.0 39:1.0 56:1.0 64:1.0 68:1.0 88:1.0 100:1.0 136:1.0 311:1.0 1172:1.0 1686:1.0 2301:1.0 2781:1.0 3129:1.0 3417:1.0 4134:1.0 4135:1.0 4319:1.0 5105:1.0 8480:1.0 10071:1.0 38116:1.0 
0.0 8.0 8.0 0.0 14:1.0 15:1.0 99:1.0 134:1.0 145:1.0 171:1.0 425:1.0 1243:1.0 
3.971787096364037 0.0 0.0 0.0 14:1.0 15:1.0 26:1.0 28:2.0 33:1.0 56:1.0 97:1.0 106:1.0 217:1.0 331:1.0 567:1.0 2376:1.0 2380:1.0 
8.0 8.0 8.0 8.0 68:1.0 82:1.0 217:1.0 1462:1.0 
1.7333232595182675 7.921998666525782 0.0 0.0 3:1.0 14:1.0 15:1.0 28:2.0 56:1.0 90:1.0 92:1.0 97:1.0 159:1.0 160:1.0 169:1.0 217:1.0 221:1.0 247:1.0 249:1.0 1302:1.0 1795:1.0 3424:1.0 4664:1.0 6306:1.0 8994:1.0 9942:1.0 33310:1.0 33396:1.0 
8.0 8.0 3.088914431574833 0.0 3:1.0 9:1.0 14:1.0 15:1.0 249:1.0 375:1.0 496:1.0 1208:1.0 8159:1.0 32260:1.0 
8.0 8.0 7.64730144326396 0.818524850796595 23:1.0 39:1.0 100:1.0 141:1.0 145:1.0 200:1.0 263:1.0 278:1.0 335:1.0 361:1.0 367:2.0 374:1.0 402:1.0 403:1.0 525:1.0 555:1.0 1560:1.0 1894:1.0 2010:1.0 4152:1.0 
0.0 8.0 3.7961966327006813 0.0 11:1.0 217:1.0 610:1.0 2114:1.0 2859:1.0 
0.6412188895063018 0.0 0.0 0.0 14:1.0 15:1.0 21:1.0 22:1.0 50:2.0 249:1.0 360:1.0 440:1.0 494:1.0 971:1.0 3337:1.0 
0.0 2.5322034997087126 0.0 0.28351783969880656 14:2.0 15:2.0 90:1.0 109:1.0 374:1.0 886:1.0 1265:1.0 1419:1.0 5728:1.0 
0.0 2.986464611338264 0.0 0.4357604562413064 3:1.0 13:1.0 66:1.0 374:1.0 525:1.0 610:1.0 1935:1.0 11672:1.0 11673:1.0 
5.421024943033851 8.0 0.0 0.0 3:1.0 11:1.0 97:1.0 274:1.0 734:1.0 3453:1.0 19865:1.0 24966:1.0 24967:1.0 
0.0 0.40890447607133135 0.0 0.0 3:1.0 4:1.0 7:1.0 14:1.0 15:1.0 25:2.0 26:1.0 29:2.0 66:1.0 249:1.0 286:1.0 356:1.0 475:1.0 626:1.0 645:1.0 815:1.0 936:1.0 1110:1.0 1503:1.0 1574:1.0 3424:1.0 6236:1.0 6540:1.0 8134:1.0 30754:1.0 
8.0 8.0 0.02777185998687856 0.8313767115733286 12:1.0 13:2.0 1400:1.0 2238:1.0 2321:1.0 15390:1.0 20002:1.0 
8.0 8.0 8.0 0.9403516648147601 14:1.0 15:1.0 26:1.0 29:1.0 32:1.0 34:2.0 56:1.0 74:1.0 87:1.0 97:1.0 158:1.0 284:1.0 286:1.0 375:1.0 623:1.0 676:1.0 1173:1.0 1610:1.0 
0.0 3.9287008935064325 3.9906966916049895 0.0 11:1.0 14:1.0 15:1.0 25:1.0 26:1.0 50:1.0 56:1.0 217:1.0 298:1.0 356:1.0 581:1.0 740:1.0 1891:1.0 9377:1.0 
8.0 8.0 0.0 2.82665854339366 66:1.0 6915:1.0 
2.7488020735854617 3.653697626687747 8.0 0.626673138792515 29:1.0 32:1.0 50:5.0 61:1.0 97:1.0 136:2.0 217:1.0 263:1.0 284:1.0 370:1.0 510:1.0 516:1.0 930:1.0 1082:1.0 2150:1.0 2369:1.0 4614:2.0 13434:1.0 21979:1.0 
0.0 0.0 8.0 0.0 3:1.0 14:1.0 15:1.0 134:1.0 1652:1.0 
0.0 4.2445280849586355 0.0 0.0 11:1.0 25:1.0 26:1.0 132:1.0 190:1.0 1349:1.0 1613:1.0 1765:1.0 1776:1.0 3777:1.0 34464:1.0 
1.1719358433710898 1.326454007205123 0.0 0.0 14:1.0 15:1.0 26:1.0 28:2.0 29:2.0 34:1.0 39:1.0 46:1.0 66:1.0 90:1.0 145:1.0 151:1.0 298:1.0 361:1.0 462:1.0 852:1.0 932:1.0 1590:1.0 1830:1.0 2423:1.0 2523:1.0 3416:1.0 3649:1.0 7907:1.0 11528:1.0 
8.0 0.0 5.619502863384623 0.0 13:1.0 46:1.0 66:1.0 68:1.0 90:1.0 165:1.0 367:1.0 533:1.0 1935:1.0 7159:1.0 
0.0 2.8190925064798766 0.0 0.0 11:1.0 29:1.0 68:1.0 263:1.0 286:1.0 1379:1.0 1393:1.0 1541:1.0 2848:1.0 3268:1.0 
3.3813945026522294 4.489134431606598 0.12874490620403586 0.0 9:1.0 13:1.0 14:1.0 15:1.0 22:1.0 32:2.0 49:1.0 56:1.0 74:1.0 92:1.0 97:2.0 151:1.0 255:1.0 362:1.0 374:1.0 525:1.0 550:1.0 778:1.0 1212:1.0 3095:1.0 3096:1.0 3120:1.0 4611:1.0 6550:1.0 38840:1.0 38841:1.0 
6.578759721900116 8.0 4.46780447051358 1.7181573279225224 3:1.0 9:1.0 14:1.0 15:1.0 26:2.0 34:1.0 56:1.0 82:1.0 97:3.0 99:1.0 105:1.0 171:1.0 182:1.0 217:1.0 220:1.0 249:1.0 407:1.0 573:1.0 654:1.0 917:1.0 1418:1.0 1895:1.0 3050:1.0 4515:1.0 
0.0 8.0 0.0 0.0 11:1.0 26:1.0 66:1.0 69:1.0 218:1.0 319:1.0 670:1.0 
8.0 8.0 1.597799572164231 0.0 25:1.0 56:2.0 66:1.0 97:1.0 158:1.0 473:1.0 3116:1.0 7785:1.0 23797:1.0 
0.0 0.0 0.21242185435308095 0.0 13:1.0 26:4.0 29:1.0 39:1.0 41:1.0 53:1.0 82:1.0 106:2.0 150:1.0 217:1.0 291:1.0 619:1.0 970:1.0 1468:1.0 1586:1.0 2926:1.0 6377:1.0 10325:1.0 12097:1.0 
0.0 4.181097490404713 0.0 0.0 21:1.0 22:1.0 25:2.0 29:1.0 56:1.0 86:1.0 97:1.0 165:1.0 266:1.0 278:1.0 568:1.0 620:1.0 680:1.0 1111:1.0 1370:1.0 2279:1.0 4393:1.0 4874:1.0 5647:1.0 8462:1.0 17725:1.0 
8.0 8.0 0.2986039205327102 0.0 21:1.0 32:1.0 39:1.0 50:2.0 68:1.0 97:1.0 207:1.0 286:1.0 605:1.0 618:1.0 1572:1.0 5648:1.0 
8.0 8.0 8.0 0.0 11:1.0 14:1.0 15:1.0 217:1.0 
0.9531452917201989 0.0 0.0 0.0 22:1.0 30:1.0 49:1.0 56:1.0 110:1.0 112:1.0 428:1.0 560:1.0 573:1.0 1970:1.0 2707:1.0 3653:1.0 4483:1.0 4684:1.0 6289:1.0 10145:1.0 10871:1.0 14945:1.0 18751:1.0 25217:1.0 30853:1.0 
2.8571365615001967 0.6240902569305726 0.0 0.0 9:1.0 14:1.0 15:1.0 22:1.0 25:1.0 26:1.0 28:2.0 82:1.0 88:1.0 92:1.0 106:2.0 141:1.0 207:1.0 263:1.0 295:1.0 303:1.0 353:1.0 470:1.0 949:1.0 1074:1.0 1480:1.0 2702:1.0 6075:1.0 
0.0 0.0 7.183589745091451 0.0 14:2.0 15:2.0 29:1.0 32:1.0 50:1.0 53:1.0 56:1.0 90:1.0 134:1.0 146:1.0 150:1.0 165:1.0 263:2.0 323:1.0 470:1.0 774:1.0 1658:1.0 2612:1.0 2763:1.0 2790:1.0 3900:1.0 19190:1.0 
0.0 0.6102057810671345 0.0 0.0 3:1.0 28:1.0 31:1.0 53:1.0 142:1.0 145:1.0 279:1.0 356:1.0 470:1.0 898:1.0 1203:1.0 1506:1.0 3799:1.0 17164:1.0 
8.0 8.0 8.0 0.0977038196816398 3:2.0 9:2.0 14:1.0 15:1.0 26:2.0 28:2.0 39:1.0 50:1.0 64:1.0 92:1.0 97:1.0 100:1.0 173:1.0 180:1.0 217:1.0 249:1.0 423:1.0 550:1.0 619:1.0 995:1.0 1349:1.0 1756:1.0 2183:1.0 2207:1.0 3276:1.0 12397:1.0 33545:1.0 
0.0 7.967133823013789 7.255672025006312 0.0 3:1.0 11:1.0 13:1.0 28:6.0 39:2.0 56:1.0 92:1.0 149:1.0 180:1.0 1070:1.0 1087:1.0 1223:1.0 1354:1.0 16756:1.0 16757:1.0 16758:1.0 
0.0 1.8738284101942742 0.0 0.0 3:1.0 13:1.0 14:1.0 15:1.0 28:2.0 55:1.0 99:1.0 106:1.0 145:1.0 149:1.0 202:1.0 267:1.0 356:1.0 689:1.0 1190:1.0 1652:1.0 4745:1.0 6474:1.0 
0.0 0.0 5.269072262694776 0.0 7:1.0 13:1.0 14:1.0 15:1.0 28:2.0 50:1.0 92:1.0 97:1.0 106:2.0 134:1.0 146:1.0 200:1.0 263:1.0 284:1.0 359:1.0 613:1.0 14115:1.0 26127:1.0 
0.0 2.729228445115312 0.0 0.0 9:1.0 26:1.0 45:1.0 56:1.0 64:2.0 65:2.0 66:1.0 92:1.0 97:1.0 100:1.0 107:1.0 284:1.0 452:1.0 493:2.0 788:2.0 822:1.0 952:1.0 1468:1.0 1631:1.0 1943:1.0 9317:1.0 
0.0 0.0 0.0 0.2238819804998571 12:1.0 13:8.0 50:1.0 117:1.0 173:1.0 177:1.0 202:1.0 287:1.0 408:1.0 849:1.0 897:1.0 1002:2.0 1693:1.0 5029:1.0 14266:1.0 16093:2.0 31925:1.0 37235:1.0 
8.0 8.0 7.90765109978572 2.7076881642718558 11:1.0 82:1.0 145:1.0 200:1.0 217:2.0 218:2.0 367:1.0 406:1.0 659:1.0 936:1.0 2653:1.0 
0.0 2.6891817630178325 8.0 0.0 11:1.0 28:2.0 29:1.0 90:1.0 92:1.0 109:1.0 135:1.0 255:1.0 256:1.0 367:1.0 683:1.0 711:1.0 808:1.0 951:1.0 1167:1.0 4030:1.0 8383:1.0 14540:1.0 28770:1.0 
0.0 3.1462019493540936 2.1707017967643516 0.0 11:1.0 13:2.0 25:1.0 26:1.0 28:2.0 30:1.0 34:1.0 39:1.0 135:1.0 149:1.0 157:1.0 202:1.0 411:1.0 414:1.0 524:1.0 645:1.0 815:1.0 863:1.0 1393:1.0 2630:1.0 3477:1.0 8785:2.0 
8.0 2.87750870459249 0.0 0.0 9:1.0 21:1.0 22:1.0 48:1.0 56:1.0 61:1.0 82:1.0 97:2.0 100:1.0 106:1.0 165:1.0 173:1.0 284:1.0 317:1.0 353:2.0 356:1.0 706:1.0 751:1.0 783:1.0 1409:1.0 1725:1.0 1805:1.0 3360:1.0 3634:1.0 
0.0 1.9145291224529475 0.0 0.0 26:3.0 28:2.0 29:1.0 39:1.0 66:1.0 90:1.0 92:1.0 139:1.0 359:1.0 740:1.0 745:2.0 942:1.0 1082:1.0 1088:1.0 1731:1.0 2354:1.0 4521:3.0 4522:1.0 4523:1.0 4524:1.0 
8.0 8.0 8.0 0.566978552933679 3:1.0 13:1.0 14:1.0 15:1.0 17:1.0 50:4.0 64:3.0 65:3.0 68:1.0 82:1.0 217:1.0 249:1.0 525:1.0 788:1.0 5715:1.0 
8.0 4.51366816130953 8.0 0.0 14:1.0 15:1.0 50:1.0 65:1.0 90:1.0 100:2.0 182:1.0 278:1.0 295:1.0 558:1.0 718:1.0 907:1.0 1157:1.0 8253:1.0 
0.8104814318019562 0.0 0.0 0.2114487244695171 21:1.0 22:1.0 32:1.0 50:2.0 100:2.0 106:1.0 145:1.0 150:2.0 151:1.0 373:1.0 570:1.0 839:1.0 848:1.0 887:1.0 888:1.0 942:1.0 1070:2.0 1172:1.0 1693:1.0 2181:1.0 2707:1.0 2781:1.0 3006:1.0 3649:2.0 3861:1.0 
0.2875840968950263 4.878782290387845 0.0 0.0 3:1.0 14:1.0 15:1.0 26:1.0 28:6.0 64:1.0 66:1.0 90:1.0 142:1.0 145:2.0 171:1.0 255:1.0 2579:1.0 7752:1.0 9033:1.0 10145:1.0 14266:1.0 26357:1.0 
8.0 8.0 3.3449927554959533 0.2134239714325871 13:1.0 26:1.0 90:1.0 101:1.0 2164:1.0 2849:1.0 18668:1.0 27596:1.0 
8.0 8.0 8.0 0.3748096480455684 50:2.0 68:1.0 107:1.0 202:1.0 217:2.0 312:1.0 361:1.0 416:1.0 440:1.0 452:1.0 552:1.0 883:1.0 1257:1.0 11387:1.0 31388:1.0 31389:2.0 31390:1.0 31391:1.0 
8.0 8.0 8.0 0.0 26:1.0 92:1.0 158:1.0 217:1.0 265:1.0 472:1.0 883:1.0 917:1.0 1004:1.0 1243:2.0 1804:1.0 
0.0 1.30361784991616 0.0 0.5185959501995288 26:2.0 28:1.0 39:1.0 56:1.0 189:1.0 257:1.0 265:1.0 299:1.0 585:1.0 602:1.0 892:1.0 1028:1.0 1051:1.0 43131:1.0 
8.0 4.200803214581331 0.0 0.0 26:1.0 32:1.0 217:1.0 331:1.0 425:1.0 3341:1.0 
1.856557492412966 4.4217666102178095 0.21261985305845776 0.0 3:1.0 13:1.0 14:1.0 15:1.0 26:1.0 28:6.0 82:1.0 142:1.0 159:1.0 196:1.0 217:1.0 249:1.0 416:1.0 488:1.0 494:1.0 598:1.0 670:1.0 689:1.0 1384:1.0 1621:1.0 3842:1.0 17132:1.0 28987:1.0 28988:1.0 
0.0 0.0 1.917194054361097 0.1801266132415612 13:1.0 18:1.0 19:1.0 22:1.0 26:2.0 29:1.0 37:1.0 50:3.0 90:1.0 286:1.0 364:1.0 365:1.0 581:1.0 596:1.0 909:1.0 1172:1.0 1399:1.0 1446:1.0 2799:1.0 5851:1.0 7348:1.0 13394:1.0 
0.7472631667011039 0.0 5.4108896199781915 0.0 9:1.0 13:1.0 22:1.0 26:1.0 134:1.0 769:1.0 839:1.0 3910:1.0 36546:1.0 
8.0 0.0 0.0 0.0 13:1.0 48:2.0 97:1.0 104:1.0 180:1.0 207:1.0 263:2.0 284:1.0 286:1.0 649:1.0 848:1.0 1582:1.0 1686:1.0 2497:1.0 2740:1.0 2813:1.0 3119:1.0 3775:1.0 4284:1.0 5829:1.0 6719:1.0 
0.0 0.0 4.909403671013877 0.8063205834879091 3:1.0 14:1.0 15:1.0 50:8.0 211:1.0 249:1.0 388:1.0 423:1.0 1231:1.0 3061:1.0 
8.0 1.8769953660587362 0.0 0.0 3:1.0 14:1.0 15:1.0 22:1.0 29:1.0 49:1.0 56:1.0 59:1.0 74:1.0 82:1.0 157:1.0 249:1.0 277:1.0 353:1.0 359:1.0 456:1.0 670:1.0 969:1.0 1486:1.0 4670:1.0 6901:1.0 
8.0 6.795228205520699 8.0 2.677794298179161 11:1.0 17:1.0 23:1.0 26:1.0 68:1.0 90:1.0 100:1.0 136:1.0 437:1.0 525:1.0 1082:1.0 2692:1.0 4096:1.0 8044:1.0 
4.403620690883062 0.0 0.0 0.0 7:1.0 26:2.0 66:1.0 72:1.0 74:1.0 97:1.0 100:1.0 147:1.0 150:1.0 151:1.0 182:1.0 279:1.0 357:1.0 425:1.0 938:1.0 942:1.0 1421:1.0 
6.7126967656300724 0.0 3.045582824014439 0.0 7:1.0 50:2.0 109:1.0 719:1.0 1790:1.0 2249:1.0 4872:1.0 9456:1.0 
0.0 6.365918922853403 3.8957242074996956 0.0 3:1.0 13:1.0 14:1.0 15:1.0 28:2.0 31:1.0 50:1.0 90:1.0 145:1.0 249:1.0 317:1.0 356:1.0 367:1.0 375:1.0 3848:1.0 4722:1.0 27603:1.0 
0.0 2.955197340863292 0.0 0.0 3:1.0 11:1.0 28:2.0 56:1.0 68:1.0 143:1.0 219:1.0 249:1.0 375:1.0 455:1.0 693:1.0 1132:1.0 3699:1.0 3710:1.0 5017:1.0 5372:1.0 5373:1.0 5374:1.0 5375:1.0 
1.8114462510078544 1.1024294125392844 0.0 0.0 21:1.0 22:1.0 50:1.0 56:1.0 92:1.0 107:1.0 136:1.0 232:1.0 236:1.0 267:1.0 284:1.0 361:1.0 440:1.0 506:1.0 585:2.0 600:1.0 791:1.0 865:1.0 2781:1.0 9199:1.0 13288:1.0 16506:1.0 24911:1.0 
4.12106115766172 0.0 0.0 0.0 4:1.0 66:1.0 142:1.0 278:1.0 286:1.0 311:1.0 688:1.0 7646:1.0 21065:1.0 
0.0 3.5181118573917085 3.3391020601109576 0.0 11:1.0 25:1.0 26:2.0 39:1.0 50:6.0 99:1.0 142:1.0 151:1.0 367:1.0 374:1.0 434:1.0 474:1.0 506:1.0 596:1.0 618:1.0 647:1.0 694:1.0 981:1.0 1692:1.0 1790:1.0 2949:1.0 
8.0 8.0 8.0 7.309532609503425 26:1.0 29:1.0 66:1.0 217:1.0 278:1.0 20363:1.0 
0.0 3.5304384222899468 0.0 0.0 14:1.0 15:1.0 145:1.0 149:1.0 162:1.0 286:1.0 793:1.0 2169:1.0 8427:1.0 
0.0 2.3819221517842757 0.0 0.0 9:1.0 14:2.0 15:2.0 26:1.0 28:2.0 30:1.0 68:1.0 69:1.0 107:1.0 175:1.0 217:1.0 367:1.0 568:1.0 1070:1.0 1167:1.0 1203:1.0 1364:1.0 1375:1.0 1600:1.0 1900:1.0 3131:1.0 
2.4295286074705698 0.4862554472792012 0.0 0.0 28:2.0 29:2.0 32:1.0 50:3.0 56:1.0 62:1.0 92:1.0 97:1.0 109:1.0 151:1.0 341:1.0 353:1.0 428:1.0 1022:1.0 1026:1.0 1411:1.0 3035:1.0 5340:1.0 7884:1.0 10240:1.0 15088:1.0 31509:1.0 
8.0 5.314488419257539 4.652067664821332 1.186170323477264 14:1.0 15:1.0 18:1.0 106:1.0 217:1.0 535:1.0 1148:1.0 
4.022475313112517 7.332287478892245 5.868369683270339 0.0 3:1.0 18:1.0 25:1.0 26:1.0 149:1.0 165:1.0 255:1.0 263:1.0 273:1.0 286:1.0 325:1.0 546:1.0 557:1.0 565:1.0 2023:1.0 4702:1.0 19052:1.0 26604:1.0 
0.0 0.0 1.0936745103090433 0.0 11:1.0 14:1.0 15:1.0 26:1.0 28:6.0 56:1.0 90:1.0 97:1.0 134:1.0 361:1.0 440:1.0 570:1.0 703:1.0 1223:1.0 3123:1.0 4744:1.0 22708:1.0 33524:1.0 
0.0 6.221331617226569 2.543559076049602 0.0 25:2.0 32:1.0 50:1.0 66:1.0 68:1.0 97:1.0 109:1.0 149:1.0 151:1.0 162:1.0 313:1.0 361:2.0 440:2.0 1448:1.0 2795:1.0 3273:1.0 
0.30981808476821054 0.0 0.0 0.0 3:2.0 14:2.0 15:2.0 109:1.0 249:2.0 1002:6.0 1383:1.0 
4.467806131485648 6.027524088771096 4.694370938463041 0.0 13:1.0 21:1.0 22:1.0 25:1.0 28:2.0 50:3.0 56:1.0 92:1.0 97:1.0 236:1.0 278:1.0 327:1.0 363:1.0 680:1.0 925:1.0 1291:1.0 1371:1.0 1470:1.0 9958:1.0 9959:1.0 10605:1.0 36148:1.0 36597:1.0 
0.0 0.0 2.4519287587662446 0.0 28:1.0 1002:6.0 2081:1.0 4368:1.0 
8.0 0.0 0.0 0.0 207:1.0 263:1.0 2933:1.0 
0.0017799830274377358 0.7325787306756646 0.0 0.0 3:1.0 13:2.0 14:1.0 15:1.0 21:1.0 22:1.0 28:2.0 34:1.0 59:1.0 64:1.0 92:1.0 105:1.0 106:1.0 110:1.0 145:1.0 182:1.0 249:1.0 255:1.0 266:1.0 295:1.0 367:1.0 428:1.0 470:1.0 907:1.0 1468:1.0 2746:1.0 3541:1.0 4176:1.0 33122:1.0 33123:1.0 
0.0 1.2007705593087659 0.0 1.3161389304881999 14:1.0 15:1.0 50:1.0 66:1.0 68:1.0 92:1.0 97:1.0 106:1.0 136:1.0 142:1.0 158:1.0 236:1.0 286:1.0 585:1.0 793:1.0 864:1.0 2210:1.0 2449:1.0 7518:1.0 
0.0 3.0116524549793366 8.0 0.0 11:1.0 13:2.0 14:2.0 15:2.0 30:1.0 50:1.0 149:1.0 173:1.0 180:1.0 249:1.0 683:1.0 809:1.0 1418:1.0 1703:1.0 1815:1.0 1994:1.0 2183:1.0 7942:1.0 
8.0 4.38386173108951 0.0 0.0 13:1.0 14:1.0 15:1.0 22:1.0 32:1.0 49:1.0 284:1.0 1681:1.0 2672:1.0 14378:1.0 
8.0 4.899309781049195 0.0 0.23129090784870607 3:1.0 14:1.0 15:1.0 19:1.0 29:1.0 47:1.0 49:1.0 53:1.0 56:1.0 64:1.0 82:1.0 87:1.0 249:1.0 263:1.0 326:1.0 494:1.0 529:1.0 599:1.0 793:1.0 6519:1.0 7993:1.0 11251:1.0 30252:1.0 41038:1.0 
1.000382663862012 0.0 0.34074060451471694 0.0 21:1.0 26:1.0 39:1.0 50:1.0 97:4.0 110:1.0 134:1.0 175:1.0 177:1.0 249:1.0 436:1.0 623:2.0 710:1.0 979:1.0 1121:1.0 1243:1.0 1392:1.0 1446:1.0 1660:1.0 2235:2.0 5082:3.0 19031:4.0 34797:1.0 34798:1.0 
8.0 8.0 8.0 4.103180208460525 13:1.0 14:1.0 15:1.0 50:2.0 66:1.0 550:1.0 2935:1.0 36785:1.0 
7.003338128121548 5.725321349947547 0.0 0.0 28:2.0 32:3.0 37:1.0 46:1.0 50:1.0 56:1.0 60:1.0 66:1.0 97:1.0 110:1.0 202:1.0 278:1.0 503:1.0 654:1.0 889:1.0 938:1.0 942:1.0 1265:1.0 1546:1.0 1590:1.0 2046:1.0 12295:1.0 
6.834308911514213 8.0 0.0 0.0 4:1.0 11:1.0 25:1.0 145:1.0 356:1.0 367:1.0 565:1.0 623:1.0 624:1.0 14027:1.0 26338:1.0 
0.0 0.0 0.5282433622309148 0.0 14:1.0 15:1.0 22:1.0 25:1.0 28:2.0 29:1.0 92:1.0 97:1.0 106:1.0 134:1.0 142:1.0 145:1.0 298:1.0 364:1.0 970:1.0 1192:1.0 1779:1.0 13903:1.0 22407:1.0 
0.21533542618579887 0.9416582201412982 0.0 0.0 28:2.0 56:1.0 66:1.0 90:2.0 92:1.0 97:1.0 100:1.0 104:1.0 221:1.0 359:1.0 506:1.0 855:1.0 1001:1.0 1862:1.0 2088:1.0 2242:1.0 6575:1.0 6636:1.0 10673:1.0 23187:1.0 23852:1.0 
5.564372076560674 8.0 8.0 0.0 14:1.0 15:1.0 26:1.0 28:1.0 50:1.0 82:1.0 97:2.0 109:1.0 142:1.0 239:1.0 452:1.0 738:1.0 841:1.0 971:1.0 1399:1.0 
5.981912913783704 8.0 7.5943835973986 1.434423844755485 14:1.0 15:1.0 25:1.0 26:1.0 39:1.0 141:1.0 142:1.0 145:2.0 217:1.0 506:1.0 654:1.0 749:1.0 876:1.0 1051:1.0 3251:1.0 4219:1.0 4276:1.0 
8.0 0.0 6.21669851174015 0.0 9:1.0 22:1.0 28:2.0 49:1.0 50:1.0 56:1.0 92:1.0 100:1.0 174:1.0 183:1.0 196:1.0 425:1.0 446:1.0 1193:1.0 5023:1.0 
8.0 6.1012990375481255 8.0 2.500938867071951 28:2.0 31:1.0 56:1.0 97:1.0 109:1.0 145:1.0 174:1.0 183:1.0 202:1.0 585:1.0 792:1.0 883:1.0 3035:1.0 
8.0 8.0 8.0 2.252806723251906 21:1.0 22:1.0 26:1.0 68:1.0 74:1.0 92:1.0 100:1.0 174:1.0 470:2.0 689:1.0 1468:1.0 1517:1.0 1576:1.0 15325:1.0 15326:1.0 
0.0 0.45747999032389525 0.0 0.8608237669755318 11:1.0 109:1.0 1554:1.0 2719:1.0 3736:1.0 3932:1.0 4213:1.0 6586:1.0 
3.856486731006102 5.081623809322384 0.30365904892949813 0.37099148067450466 9:1.0 11:1.0 28:2.0 39:1.0 50:4.0 137:1.0 189:2.0 506:1.0 1268:1.0 3147:1.0 3496:1.0 10708:1.0 14431:1.0 18460:1.0 18461:1.0 18462:1.0 18463:1.0 
8.0 8.0 8.0 2.943796393169185 23:1.0 26:1.0 28:2.0 32:1.0 106:1.0 217:1.0 256:1.0 367:1.0 558:1.0 1098:1.0 
0.0 8.0 0.0 0.0 3:1.0 11:1.0 673:1.0 1053:1.0 
8.0 8.0 8.0 0.0 3:1.0 26:1.0 28:2.0 36:1.0 45:1.0 61:1.0 68:1.0 97:1.0 106:1.0 217:1.0 232:1.0 248:1.0 337:1.0 361:1.0 388:1.0 440:1.0 706:1.0 960:1.0 1316:1.0 1941:1.0 3725:1.0 4335:1.0 4911:1.0 
8.0 2.7295493598163465 8.0 0.0 7:1.0 25:1.0 26:1.0 29:1.0 134:1.0 139:1.0 1028:1.0 2589:1.0 
8.0 8.0 8.0 1.1659994177178372 14:1.0 15:1.0 26:1.0 28:2.0 32:1.0 50:1.0 56:1.0 60:1.0 100:1.0 110:1.0 153:1.0 217:1.0 236:1.0 306:1.0 327:1.0 331:1.0 425:1.0 444:1.0 1461:1.0 1725:1.0 
6.995391691815009 0.0 0.14859030983858448 0.040462354680913935 13:1.0 22:1.0 50:4.0 64:1.0 117:1.0 284:1.0 598:1.0 604:1.0 607:1.0 793:1.0 1919:1.0 3087:1.0 3417:1.0 5231:1.0 7940:1.0 
5.7851060860062535 1.556151443340743 8.0 0.0 3:1.0 13:1.0 26:1.0 29:1.0 34:1.0 50:1.0 97:1.0 142:1.0 183:1.0 217:1.0 227:1.0 291:1.0 323:1.0 500:1.0 584:1.0 649:1.0 1028:1.0 38918:1.0 
0.0 8.0 5.162679265954152 0.0 3:1.0 11:1.0 13:1.0 64:1.0 65:1.0 217:1.0 711:1.0 964:1.0 10276:1.0 12144:1.0 
0.0 1.5233438172125318 0.0 0.0 11:1.0 29:1.0 753:1.0 2272:1.0 7097:1.0 11638:1.0 
0.0 0.0 1.2674161647507773 0.0 21:1.0 22:1.0 26:2.0 28:2.0 30:1.0 47:2.0 49:1.0 60:1.0 100:1.0 142:2.0 150:1.0 718:1.0 919:1.0 946:1.0 1586:1.0 1599:1.0 4657:1.0 4680:2.0 6377:1.0 11388:1.0 20329:1.0 
0.0 6.7276727349099295 0.0 0.0 3:2.0 14:2.0 15:2.0 31:1.0 92:1.0 99:1.0 105:1.0 106:1.0 109:1.0 145:1.0 158:1.0 249:2.0 278:1.0 295:1.0 470:1.0 494:1.0 680:1.0 907:1.0 1925:1.0 2369:1.0 4655:1.0 5984:1.0 
0.0 0.6641259709346105 0.0 0.0 3:1.0 7:1.0 14:1.0 15:1.0 26:1.0 28:2.0 29:1.0 39:1.0 92:1.0 126:2.0 142:1.0 159:1.0 227:1.0 249:1.0 255:1.0 346:1.0 356:1.0 799:1.0 1085:1.0 1613:1.0 1665:1.0 2561:1.0 3510:1.0 4044:1.0 4221:1.0 6003:1.0 12683:1.0 22134:1.0 
8.0 8.0 0.3457727920346605 0.0 21:1.0 22:1.0 136:1.0 165:1.0 196:1.0 2256:1.0 
8.0 8.0 8.0 1.7406282358000182 9:1.0 13:1.0 14:2.0 15:2.0 56:1.0 82:1.0 92:1.0 97:1.0 100:1.0 137:1.0 278:2.0 367:1.0 373:1.0 654:1.0 3688:1.0 4249:1.0 5625:1.0 7385:1.0 40330:1.0 
0.523000543752099 0.0 0.0 0.0 3:1.0 14:1.0 15:1.0 23:1.0 25:1.0 26:1.0 32:1.0 33:1.0 41:1.0 50:1.0 68:1.0 109:1.0 145:1.0 620:1.0 689:1.0 799:1.0 832:1.0 1773:1.0 
3.003919502287315 5.880212756833037 4.8121815198169875 0.0 14:1.0 15:1.0 25:1.0 26:1.0 32:1.0 36:1.0 39:1.0 50:1.0 56:1.0 66:1.0 82:1.0 92:1.0 145:1.0 159:1.0 306:1.0 326:1.0 356:1.0 548:1.0 585:1.0 663:1.0 718:1.0 774:1.0 895:1.0 2323:1.0 9763:2.0 22068:1.0 
0.0 0.9481253737059013 8.0 0.0 3:1.0 14:1.0 15:1.0 25:1.0 26:1.0 49:1.0 162:1.0 217:1.0 718:1.0 2056:1.0 7345:1.0 
0.0 0.0 8.0 0.0 11:1.0 90:1.0 149:1.0 173:2.0 256:1.0 283:1.0 545:1.0 875:1.0 2667:1.0 5092:1.0 11842:1.0 12443:1.0 21986:1.0 25694:1.0 
3.75208806836165 1.120408816805215 0.0 0.0 3:1.0 9:1.0 14:2.0 15:2.0 64:1.0 65:1.0 68:1.0 99:1.0 106:2.0 217:1.0 249:1.0 255:1.0 295:2.0 356:1.0 401:1.0 425:2.0 600:1.0 774:1.0 907:1.0 971:1.0 1233:1.0 4655:1.0 8172:1.0 
8.0 0.0 0.0 0.0 21:1.0 22:1.0 88:1.0 100:1.0 263:1.0 279:1.0 311:1.0 374:1.0 663:1.0 1320:1.0 4010:1.0 
0.0 1.0503817856421407 0.0 0.0 14:1.0 15:1.0 28:2.0 66:1.0 92:1.0 106:2.0 145:1.0 158:1.0 162:1.0 174:1.0 196:1.0 202:1.0 286:1.0 428:1.0 577:1.0 864:1.0 4216:1.0 9193:1.0 
2.7157653301184914 1.801755793473246 0.0 1.4500398410612831 14:1.0 15:1.0 21:1.0 50:3.0 109:1.0 180:1.0 202:1.0 868:1.0 8816:1.0 9781:1.0 14590:1.0 31716:1.0 31717:1.0 31718:1.0 
8.0 3.0714503456412183 8.0 3.054876004080399 3:1.0 21:1.0 26:1.0 28:1.0 30:1.0 50:5.0 174:1.0 233:1.0 323:1.0 
8.0 3.9314864204186777 0.0 0.0 1536:1.0 4152:1.0 7748:1.0 10077:1.0 12521:1.0 18486:1.0 
0.0 6.420626072008957 0.0 0.0 9:1.0 11:1.0 21:1.0 22:1.0 28:2.0 174:1.0 367:1.0 730:2.0 772:1.0 1144:1.0 1695:1.0 1699:1.0 4311:1.0 9819:1.0 
1.8445000175231603 2.1053357248429156 2.6919686923163977 0.0 3:1.0 21:1.0 26:1.0 29:1.0 32:3.0 47:1.0 56:1.0 64:3.0 65:1.0 99:1.0 100:1.0 133:1.0 139:1.0 142:1.0 146:1.0 186:1.0 189:1.0 196:1.0 265:1.0 337:1.0 676:1.0 788:1.0 1720:1.0 4152:1.0 6168:1.0 10482:1.0 
3.365188439157471 0.0 5.682898850426557 0.0 13:1.0 22:1.0 26:2.0 28:2.0 29:1.0 49:1.0 142:1.0 267:1.0 367:1.0 461:1.0 590:1.0 828:1.0 1882:1.0 2301:1.0 3120:1.0 3374:1.0 12232:1.0 26178:1.0 39415:1.0 
6.821001367175177 8.0 2.8367540809637104 1.101056514629292 26:3.0 29:3.0 39:1.0 74:1.0 87:1.0 92:1.0 106:1.0 109:1.0 255:1.0 365:1.0 376:1.0 618:1.0 898:1.0 2823:1.0 4680:1.0 5953:1.0 14832:1.0 27830:1.0 27831:1.0 
0.18617941880027525 5.183540268800268 1.3371966309034151 0.0 3:1.0 26:1.0 28:2.0 32:1.0 50:3.0 66:1.0 97:1.0 138:1.0 139:1.0 364:1.0 626:1.0 1144:1.0 1485:1.0 4519:1.0 5330:1.0 6403:1.0 18487:1.0 
8.0 8.0 8.0 0.0 14:1.0 15:1.0 28:2.0 32:1.0 50:1.0 97:2.0 149:1.0 263:1.0 710:1.0 3019:1.0 
0.9745592486700925 7.435819827830895 0.7349670399355364 0.0 13:3.0 65:1.0 90:1.0 142:1.0 175:1.0 217:1.0 736:1.0 1299:1.0 1853:1.0 2133:1.0 3440:1.0 3622:1.0 4106:1.0 4218:1.0 4422:1.0 20511:1.0 21316:1.0 22192:1.0 33187:1.0 
8.0 8.0 8.0 2.7127038479637156 21:1.0 25:1.0 26:1.0 28:1.0 29:1.0 31:1.0 97:1.0 101:1.0 145:1.0 217:1.0 1082:1.0 1462:1.0 
0.0 1.0945419420282492 0.0 0.0 3:1.0 11:1.0 28:2.0 66:1.0 82:1.0 90:1.0 92:1.0 158:1.0 278:1.0 291:1.0 506:1.0 741:1.0 2456:1.0 2643:1.0 7338:1.0 8837:1.0 19468:2.0 37104:1.0 40717:1.0 
8.0 0.0 8.0 0.0 3:1.0 21:1.0 22:1.0 32:1.0 92:1.0 146:1.0 221:1.0 279:1.0 446:1.0 
1.3319058376125443 7.065388441882328 0.0 0.09372955876622145 3:1.0 14:1.0 15:1.0 22:1.0 28:2.0 49:1.0 56:1.0 92:1.0 189:1.0 202:1.0 249:1.0 265:1.0 524:1.0 578:1.0 2242:1.0 6135:1.0 6818:1.0 7809:1.0 7942:1.0 
8.0 0.0 0.0 0.0 3:1.0 13:1.0 32:4.0 47:1.0 49:1.0 56:1.0 64:1.0 83:1.0 97:1.0 105:1.0 107:1.0 150:1.0 151:1.0 265:1.0 286:1.0 565:1.0 
0.29216725843283525 3.1734777099273277 2.0062716544932626 0.0 14:1.0 15:1.0 26:2.0 28:6.0 39:2.0 70:1.0 90:2.0 96:2.0 99:1.0 149:1.0 165:1.0 248:1.0 291:1.0 793:1.0 862:1.0 883:1.0 1243:1.0 2816:1.0 3104:1.0 3267:1.0 3273:1.0 3880:1.0 6646:1.0 7920:1.0 17150:1.0 
2.1518853151438386 0.0 0.0 0.0 9:1.0 14:1.0 15:1.0 21:1.0 22:1.0 47:1.0 55:1.0 60:1.0 61:1.0 72:1.0 74:1.0 82:2.0 100:1.0 105:1.0 189:1.0 279:1.0 304:1.0 367:1.0 416:1.0 436:1.0 748:1.0 936:1.0 1097:1.0 1243:2.0 1503:1.0 2353:1.0 3730:1.0 9964:1.0 
0.0 3.4335466297859294 0.0 0.0 11:1.0 286:1.0 434:1.0 510:1.0 2067:1.0 2662:1.0 
6.462775989089326 3.6229981091433787 5.506893431802781 0.0 3:1.0 14:1.0 15:1.0 25:1.0 55:1.0 56:1.0 92:2.0 183:2.0 217:1.0 249:1.0 263:3.0 295:1.0 360:1.0 578:2.0 710:1.0 898:1.0 1246:1.0 1418:1.0 4174:1.0 4185:1.0 13336:1.0 16186:1.0 16187:1.0 
0.0 8.0 0.0 0.0 9:1.0 11:1.0 26:1.0 66:1.0 21057:1.0 
3.8768303207904715 0.2586137206207713 0.0 1.0779629800432422 14:3.0 15:3.0 23:1.0 29:1.0 32:2.0 97:4.0 100:2.0 134:1.0 189:1.0 249:1.0 267:1.0 407:1.0 1613:1.0 2353:1.0 4475:1.0 12364:1.0 
0.0 7.131166245025262 0.0 0.0 13:1.0 82:1.0 109:1.0 1468:1.0 6582:1.0 12062:1.0 
8.0 8.0 8.0 1.4606213755729427 29:1.0 50:2.0 97:1.0 100:1.0 148:1.0 265:1.0 334:2.0 367:2.0 375:1.0 681:1.0 1019:1.0 2132:1.0 
0.0 2.994763101621254 0.0 0.0 21:1.0 22:1.0 26:2.0 32:3.0 39:1.0 43:1.0 74:1.0 92:2.0 110:1.0 142:1.0 145:1.0 180:1.0 221:1.0 279:1.0 618:1.0 620:1.0 942:1.0 1435:1.0 2280:1.0 2291:1.0 2370:1.0 6574:1.0 26071:1.0 
6.707746921370919 8.0 7.782372386023273 0.9115379188683586 25:1.0 26:1.0 29:1.0 375:1.0 570:1.0 587:1.0 2422:1.0 10119:2.0 23582:1.0 
0.0 2.16929948877626 0.0 0.0 3:2.0 9:1.0 11:1.0 15:1.0 26:2.0 28:6.0 35:1.0 90:1.0 109:1.0 145:1.0 180:1.0 249:1.0 357:1.0 773:1.0 956:1.0 1418:1.0 2492:1.0 3201:1.0 
8.0 8.0 0.0 0.8929555796528705 9:1.0 14:1.0 15:1.0 26:1.0 92:1.0 274:1.0 425:1.0 665:1.0 7344:1.0 
4.727382958345383 0.0 8.0 0.0 13:1.0 14:1.0 15:1.0 50:2.0 57:1.0 149:1.0 249:1.0 263:1.0 298:1.0 1028:1.0 7416:1.0 12310:1.0 
2.814078729355889 8.0 4.421221111044862 0.0 3:1.0 11:1.0 22:1.0 39:1.0 90:1.0 217:1.0 376:1.0 618:1.0 12079:1.0 19051:1.0 42537:1.0 
0.0 1.8592873797279994 2.0746822730277534 0.0 3:1.0 14:1.0 15:1.0 26:2.0 28:2.0 31:1.0 34:2.0 39:1.0 50:1.0 51:1.0 56:2.0 66:1.0 92:1.0 202:1.0 249:1.0 298:1.0 367:1.0 455:1.0 642:1.0 875:1.0 2769:1.0 4327:1.0 7716:1.0 13328:1.0 
5.578835668375869 8.0 8.0 0.31165273378518965 3:1.0 90:2.0 142:1.0 217:1.0 218:1.0 374:1.0 394:1.0 502:1.0 1405:1.0 15810:1.0 
8.0 8.0 8.0 0.0 217:1.0 278:1.0 312:1.0 1139:1.0 4393:1.0 
0.0 8.0 3.0382234053373547 0.0 3:1.0 11:1.0 14:1.0 15:1.0 26:1.0 29:1.0 30:1.0 34:1.0 55:1.0 56:2.0 60:1.0 92:2.0 110:1.0 134:1.0 136:1.0 151:1.0 200:1.0 249:1.0 440:1.0 570:1.0 866:1.0 1175:1.0 1193:1.0 5066:1.0 
0.0 0.4189302176383086 0.0 0.19806019606486405 3:1.0 11:1.0 29:1.0 66:1.0 189:1.0 202:1.0 710:1.0 1280:2.0 1737:1.0 2570:2.0 2574:1.0 4272:2.0 5261:1.0 
0.0 0.0 8.0 0.0 3:1.0 14:1.0 15:1.0 134:1.0 2180:1.0 
8.0 8.0 8.0 0.0 26:1.0 28:2.0 39:1.0 56:1.0 65:1.0 66:1.0 283:1.0 1223:1.0 1311:1.0 
8.0 5.767027270650706 0.0 0.08980189857492155 22:1.0 46:1.0 72:1.0 74:1.0 100:2.0 162:1.0 182:1.0 217:1.0 310:2.0 318:1.0 427:1.0 663:1.0 682:1.0 950:1.0 1139:1.0 2163:1.0 2729:1.0 4360:1.0 4934:1.0 
0.0 0.0 3.446613116267887 0.0 13:1.0 46:1.0 90:1.0 134:1.0 263:1.0 470:1.0 848:1.0 1072:1.0 33265:1.0 
8.0 8.0 8.0 3.8043389542071564 3:1.0 14:2.0 15:2.0 47:1.0 50:2.0 56:1.0 97:1.0 136:1.0 145:1.0 217:1.0 249:2.0 255:1.0 807:1.0 1708:2.0 4873:1.0 5708:1.0 
8.0 0.0 0.0 0.0 13:1.0 17:1.0 25:1.0 26:1.0 28:2.0 34:1.0 39:1.0 49:1.0 50:3.0 97:1.0 100:1.0 145:1.0 174:1.0 207:1.0 263:1.0 286:1.0 367:1.0 407:1.0 555:1.0 623:1.0 676:1.0 922:1.0 4093:1.0 5094:1.0 
0.0 0.0 8.0 0.0 11:1.0 134:1.0 
0.925375589042478 3.6597698420097893 0.0 0.0 3:1.0 9:2.0 14:1.0 15:1.0 26:3.0 28:2.0 29:1.0 39:1.0 56:1.0 92:1.0 100:1.0 138:1.0 249:1.0 266:1.0 295:1.0 297:1.0 312:1.0 317:1.0 367:1.0 440:1.0 1028:1.0 1418:1.0 2148:1.0 3806:1.0 4750:1.0 7313:1.0 7914:1.0 
8.0 8.0 8.0 3.2909347013631853 92:1.0 180:1.0 217:1.0 367:1.0 601:1.0 8253:1.0 
8.0 8.0 8.0 0.6597126395127769 14:1.0 15:1.0 21:1.0 26:1.0 28:2.0 29:1.0 142:1.0 217:1.0 223:1.0 255:1.0 265:1.0 358:1.0 27781:1.0 
8.0 8.0 0.0 0.0 14:1.0 15:1.0 28:1.0 
8.0 8.0 8.0 0.0 25:1.0 26:2.0 28:1.0 50:1.0 56:1.0 60:1.0 149:1.0 173:1.0 180:1.0 325:1.0 2048:1.0 2049:1.0 4265:2.0 10434:1.0 
1.3933612576210868 6.008561034405087 0.0 1.1981154330283137 9:1.0 28:2.0 35:1.0 66:1.0 92:1.0 286:1.0 374:1.0 525:1.0 793:1.0 864:1.0 962:2.0 1074:1.0 
0.0 4.00741215118076 0.0 0.0 11:2.0 53:1.0 56:1.0 66:1.0 68:1.0 110:1.0 142:2.0 852:1.0 1028:1.0 7281:1.0 
3.134290632084311 7.853219794623312 8.0 0.0 14:1.0 15:2.0 29:1.0 32:1.0 44:1.0 56:1.0 92:1.0 145:1.0 146:1.0 151:1.0 165:1.0 177:1.0 278:1.0 375:1.0 440:1.0 654:1.0 907:1.0 1870:1.0 3913:1.0 10870:1.0 
8.0 0.0999902557235549 8.0 1.8189770232179585 14:1.0 15:1.0 26:1.0 28:2.0 50:3.0 90:1.0 100:2.0 183:1.0 202:1.0 217:1.0 220:1.0 263:1.0 295:1.0 367:1.0 712:1.0 718:1.0 948:1.0 1097:1.0 3806:2.0 13939:1.0 
6.777385092801926 4.392584685012516 0.0 0.0 32:1.0 50:1.0 92:1.0 97:1.0 434:1.0 2869:1.0 3852:1.0 
0.0 8.0 0.0 0.0 3:1.0 9:1.0 14:1.0 15:1.0 25:1.0 26:1.0 66:1.0 142:1.0 263:1.0 367:1.0 711:1.0 905:1.0 1053:1.0 8695:1.0 28516:1.0 
8.0 5.894344806279822 0.0 0.0 14:1.0 15:1.0 39:1.0 47:1.0 49:1.0 100:1.0 202:1.0 207:1.0 263:1.0 693:1.0 2056:1.0 
8.0 8.0 8.0 0.07173429795473701 11:1.0 217:1.0 741:1.0 2959:1.0 7987:1.0 11386:1.0 
4.9950813792952875 6.669311255299038 0.510790725824698 0.0 3:1.0 13:1.0 14:2.0 15:2.0 26:1.0 31:1.0 50:2.0 82:1.0 90:2.0 97:2.0 100:1.0 117:1.0 122:1.0 145:1.0 196:1.0 249:1.0 525:1.0 654:1.0 914:1.0 1200:1.0 35140:1.0 35141:1.0 
0.0 5.037427325754292 5.104210549663865 0.0 3:1.0 9:1.0 11:1.0 14:1.0 15:1.0 55:1.0 97:1.0 100:1.0 149:1.0 249:1.0 342:1.0 359:1.0 6459:1.0 6460:1.0 6898:1.0 20975:1.0 
2.900027085202991 3.7511604292525527 0.0 0.0 9:2.0 28:6.0 56:1.0 92:1.0 97:1.0 217:1.0 226:1.0 255:1.0 445:1.0 494:1.0 774:1.0 805:1.0 938:1.0 1815:1.0 3707:1.0 3958:1.0 8138:1.0 
0.5467765814471103 4.991848736009204 0.0 0.0 14:1.0 15:1.0 114:1.0 125:1.0 1668:1.0 2006:1.0 3153:1.0 11253:1.0 12761:1.0 32144:1.0 
0.0 0.18731570677844178 0.0 0.0 11:1.0 13:1.0 26:1.0 28:2.0 29:1.0 55:1.0 64:1.0 65:1.0 69:1.0 89:1.0 189:1.0 4506:1.0 5787:1.0 17677:1.0 
8.0 0.0 0.0 0.1303073992844161 3:1.0 14:1.0 15:1.0 21:2.0 28:2.0 47:1.0 49:1.0 100:4.0 150:2.0 159:2.0 207:1.0 249:1.0 409:1.0 568:3.0 887:1.0 3436:1.0 
8.0 8.0 8.0 0.0 50:1.0 134:1.0 227:1.0 
8.0 0.4855122148681493 1.1376787428245785 0.6695463852919706 13:2.0 21:1.0 22:1.0 50:1.0 367:1.0 619:1.0 3336:1.0 3337:1.0 3338:1.0 
0.0 8.0 0.0 0.0 11:1.0 26:1.0 66:1.0 221:1.0 1299:1.0 
0.6630954153217793 0.0 4.194082396335519 0.0 13:1.0 14:1.0 15:1.0 29:2.0 32:1.0 50:1.0 97:1.0 149:1.0 249:1.0 286:1.0 1028:1.0 1871:1.0 2169:1.0 2491:1.0 7024:1.0 8846:1.0 27457:1.0 
0.7889387374483132 4.83698482613892 0.0 0.0 9:1.0 14:1.0 15:1.0 21:1.0 22:1.0 23:1.0 56:1.0 82:1.0 106:1.0 165:1.0 196:1.0 200:1.0 202:1.0 291:1.0 428:2.0 467:1.0 541:1.0 1847:1.0 1943:1.0 2228:1.0 4110:1.0 
8.0 5.176377591394096 8.0 0.0 13:2.0 97:1.0 217:1.0 938:1.0 1098:1.0 1201:1.0 1895:1.0 35416:1.0 36684:1.0 
0.0 8.0 0.0 0.0 3:1.0 11:1.0 26:1.0 66:1.0 142:1.0 10145:1.0 
8.0 8.0 8.0 3.023352083952075 28:2.0 56:1.0 92:1.0 100:1.0 180:1.0 217:1.0 367:1.0 960:1.0 1004:2.0 1547:1.0 3297:1.0 16965:1.0 
4.476719042106948 7.555819328455911 5.264019243587305 0.0 26:1.0 28:2.0 39:1.0 42:1.0 50:3.0 60:1.0 68:1.0 149:1.0 414:1.0 442:1.0 452:1.0 723:1.0 1646:1.0 1693:1.0 2267:1.0 3913:1.0 3992:1.0 17909:1.0 17950:1.0 23990:1.0 24387:1.0 38676:1.0 42903:1.0 42904:1.0 42905:1.0 
8.0 8.0 0.0 0.0 14:1.0 15:1.0 28:2.0 32:1.0 48:1.0 66:1.0 68:1.0 92:1.0 227:1.0 286:1.0 470:1.0 2380:1.0 3908:1.0 13970:1.0 
0.0 8.0 8.0 0.37343790982879665 3:1.0 14:1.0 15:1.0 64:1.0 65:1.0 149:1.0 249:1.0 339:2.0 788:1.0 3372:1.0 
4.1609146242676145 5.000767475804457 1.8974789469822018 0.5076077679148194 3:1.0 13:1.0 14:2.0 15:2.0 26:1.0 39:2.0 50:2.0 56:1.0 143:1.0 189:1.0 249:1.0 360:1.0 374:1.0 525:1.0 1480:1.0 1607:1.0 2034:1.0 2769:2.0 10719:1.0 38068:1.0 
0.0 5.0708813174115095 0.0 0.0 13:3.0 78:1.0 284:1.0 899:1.0 2182:1.0 4615:1.0 18401:1.0 29263:1.0 39657:1.0 39658:1.0 
1.713639207758783 0.08280781451230435 0.0 0.0 3:2.0 11:1.0 22:1.0 26:1.0 61:2.0 68:1.0 97:1.0 117:1.0 234:1.0 253:1.0 875:1.0 1002:2.0 1314:1.0 2046:1.0 2270:1.0 4577:1.0 8066:1.0 10042:1.0 12015:1.0 
0.0 2.49639956597663 0.0 0.0 11:1.0 66:1.0 452:1.0 570:1.0 773:1.0 990:1.0 4245:1.0 4592:1.0 4593:1.0 4594:1.0 
4.370984865336205 1.6548493891891798 0.0 0.0 14:1.0 15:1.0 29:2.0 34:1.0 39:1.0 56:1.0 72:1.0 142:1.0 143:2.0 146:1.0 169:1.0 217:1.0 323:1.0 362:1.0 455:1.0 494:1.0 568:2.0 774:1.0 1132:1.0 1764:1.0 2504:1.0 7512:1.0 
0.5926342115618933 1.8643452703014418 0.0 0.0 14:1.0 15:1.0 22:1.0 28:2.0 49:1.0 72:1.0 142:1.0 470:1.0 1243:1.0 1681:1.0 1834:1.0 2323:1.0 
0.0 8.0 0.0 0.0 11:1.0 13:1.0 66:1.0 173:1.0 741:1.0 749:1.0 1069:1.0 1153:1.0 1302:1.0 1984:1.0 17442:1.0 
1.253795558945793 1.5771880965366347 0.0 0.0 11:1.0 28:2.0 68:1.0 90:1.0 97:2.0 136:1.0 217:1.0 323:3.0 374:1.0 426:1.0 726:1.0 736:1.0 753:3.0 852:1.0 994:1.0 3684:1.0 4664:1.0 5950:1.0 6216:1.0 12639:1.0 
8.0 8.0 8.0 0.0 22:1.0 26:1.0 32:1.0 39:2.0 49:1.0 56:1.0 68:1.0 100:1.0 110:1.0 286:1.0 365:1.0 867:1.0 995:1.0 5800:1.0 10477:1.0 
8.0 8.0 8.0 0.0 14:1.0 15:1.0 26:1.0 99:1.0 145:2.0 217:1.0 5230:1.0 
8.0 8.0 7.958266461854648 1.6858194223531697 3:1.0 12:1.0 14:1.0 15:1.0 28:1.0 32:1.0 82:1.0 97:1.0 105:1.0 134:1.0 200:1.0 249:1.0 341:1.0 
8.0 8.0 8.0 1.422030705793863 7:1.0 14:1.0 15:1.0 26:1.0 74:1.0 97:1.0 99:1.0 100:1.0 145:2.0 162:1.0 200:1.0 217:1.0 367:1.0 371:1.0 405:1.0 710:1.0 948:1.0 
1.5051752133411778 0.0 0.21019674587666695 0.0 3:1.0 14:1.0 15:1.0 21:1.0 22:1.0 26:1.0 27:1.0 29:2.0 32:2.0 71:1.0 95:1.0 97:1.0 142:1.0 290:1.0 470:1.0 537:1.0 597:1.0 1011:1.0 2762:1.0 3095:1.0 3363:1.0 3762:1.0 5470:1.0 
0.0 8.0 0.0 0.0 3:1.0 11:1.0 28:2.0 90:1.0 217:1.0 1080:1.0 1154:1.0 1590:1.0 6938:1.0 8951:1.0 9961:1.0 
0.0 0.0 8.0 0.0 13:1.0 32:1.0 39:1.0 56:1.0 97:1.0 106:2.0 134:1.0 146:1.0 158:1.0 236:1.0 356:1.0 359:1.0 473:1.0 971:1.0 1548:1.0 4475:1.0 8014:1.0 35798:1.0 
8.0 8.0 8.0 0.0 13:1.0 50:1.0 97:1.0 110:1.0 364:1.0 
8.0 0.0 8.0 0.0 14:1.0 15:1.0 32:1.0 50:1.0 97:1.0 100:1.0 106:1.0 134:1.0 263:1.0 525:1.0 793:1.0 956:1.0 10888:1.0 
1.995876088876987 7.522904688497919 1.4529720746328547 0.0 74:1.0 82:1.0 92:1.0 97:1.0 109:1.0 174:1.0 231:1.0 265:1.0 278:1.0 430:1.0 1121:1.0 2616:1.0 3084:1.0 3284:1.0 
8.0 8.0 0.0 0.0 3:1.0 12:1.0 14:1.0 15:1.0 25:1.0 26:2.0 28:2.0 39:1.0 53:2.0 56:2.0 66:1.0 100:1.0 182:1.0 249:1.0 367:2.0 473:1.0 597:1.0 602:1.0 603:1.0 604:1.0 
5.541283866145187 5.595667464919332 0.21120990356361743 0.0 22:1.0 29:1.0 43:1.0 173:1.0 284:1.0 300:1.0 359:1.0 452:1.0 715:1.0 830:1.0 1001:1.0 1602:1.0 6377:1.0 10597:1.0 12792:1.0 
2.608672302777331 8.0 7.549440607810619 0.0 9:1.0 11:1.0 13:2.0 26:2.0 29:1.0 90:1.0 97:1.0 100:1.0 142:1.0 217:1.0 367:1.0 423:1.0 627:1.0 2760:1.0 2847:1.0 2848:1.0 2849:1.0 2850:1.0 
0.0 4.420322393529363 0.0 0.0 3:1.0 13:1.0 14:3.0 15:3.0 26:2.0 34:1.0 39:1.0 109:1.0 142:1.0 145:1.0 151:1.0 158:1.0 205:1.0 249:1.0 323:1.0 815:1.0 863:1.0 2209:1.0 3973:1.0 4817:1.0 14688:1.0 
1.643962977681797 1.1319631025212744 0.0 0.0 14:1.0 15:1.0 28:2.0 29:3.0 50:2.0 74:1.0 92:1.0 100:1.0 142:2.0 145:3.0 182:1.0 217:1.0 243:1.0 267:1.0 367:1.0 394:1.0 652:1.0 1243:1.0 1565:1.0 2207:1.0 2354:1.0 2678:1.0 8066:1.0 13932:1.0 24382:1.0 28698:1.0 
0.0 3.2750838988053226 0.0 0.0 11:1.0 14:1.0 15:1.0 66:1.0 97:2.0 460:1.0 809:1.0 1028:1.0 6459:1.0 7497:1.0 7498:1.0 
0.8231014349210134 0.0 2.537040998690585 0.0 11:1.0 13:1.0 15:1.0 25:1.0 39:1.0 68:1.0 152:1.0 217:1.0 286:1.0 394:1.0 430:1.0 496:1.0 719:1.0 1070:1.0 1379:1.0 1943:1.0 2055:1.0 2108:1.0 9283:1.0 9448:1.0 9872:1.0 9873:1.0 
0.7582994815298281 2.11323996507016 6.041276215766789 0.0 3:2.0 14:1.0 15:1.0 32:1.0 50:1.0 94:1.0 97:1.0 158:1.0 263:1.0 361:1.0 375:1.0 796:1.0 881:2.0 1526:1.0 1599:1.0 1933:1.0 2136:1.0 2994:1.0 3362:1.0 27350:1.0 
8.0 8.0 7.2014216459374305 0.0 14:1.0 15:1.0 28:6.0 90:1.0 101:1.0 18668:1.0 
0.0 7.003676170135035 0.0 0.0 14:1.0 15:1.0 26:1.0 29:1.0 32:1.0 39:1.0 56:1.0 97:1.0 109:1.0 429:1.0 517:1.0 534:1.0 648:1.0 2213:1.0 22300:1.0 
8.0 8.0 0.0 2.950010967364365 31:1.0 90:1.0 100:2.0 105:1.0 106:1.0 109:1.0 145:1.0 186:1.0 267:1.0 367:1.0 470:1.0 555:1.0 1121:1.0 1893:1.0 2836:1.0 7961:1.0 12887:1.0 12888:1.0 
0.0 0.4645820503881534 0.0 0.0 13:1.0 92:1.0 141:1.0 434:1.0 585:1.0 935:1.0 1029:1.0 1486:1.0 2869:1.0 3238:1.0 
0.9833034117023512 0.0 0.0 0.0 3:2.0 9:1.0 13:1.0 21:1.0 22:1.0 50:1.0 56:1.0 356:1.0 516:1.0 570:1.0 680:1.0 2260:1.0 2549:1.0 2643:1.0 3716:1.0 16324:1.0 30738:2.0 
8.0 3.2300550210995453 8.0 0.0 14:1.0 15:1.0 26:1.0 29:1.0 50:1.0 61:3.0 90:1.0 143:1.0 217:1.0 778:1.0 1257:1.0 2124:1.0 2474:1.0 
8.0 8.0 2.387642699736899 0.0 9:1.0 14:1.0 15:1.0 26:1.0 28:2.0 50:1.0 56:1.0 65:1.0 107:2.0 167:1.0 217:1.0 367:1.0 494:1.0 506:1.0 638:1.0 1014:1.0 1070:1.0 1081:1.0 4650:1.0 8745:1.0 
8.0 0.0 6.375177311990547 0.0 26:1.0 28:2.0 29:1.0 32:1.0 53:1.0 56:1.0 106:1.0 133:1.0 217:1.0 255:1.0 278:1.0 500:1.0 1431:1.0 
0.0 1.9720948450672917 0.0 0.0 11:1.0 13:1.0 22:1.0 39:1.0 49:1.0 90:1.0 145:1.0 1526:1.0 1547:1.0 4981:1.0 7960:1.0 34432:1.0 34433:1.0 34434:1.0 
0.8691890124475938 0.5700084406886686 3.8428943329190677 0.0 3:1.0 4:1.0 11:1.0 26:2.0 28:2.0 29:1.0 50:3.0 90:1.0 110:2.0 145:1.0 217:1.0 280:1.0 331:1.0 361:1.0 472:1.0 550:1.0 1001:1.0 2593:1.0 3665:1.0 4099:1.0 5310:1.0 7200:1.0 21489:1.0 21490:1.0 
2.1910916993782528 0.0 5.151157315920552 0.0 9:1.0 28:2.0 46:1.0 53:1.0 74:1.0 82:1.0 145:1.0 217:1.0 278:1.0 367:1.0 793:1.0 1097:1.0 1139:1.0 1148:1.0 1233:1.0 2106:1.0 11241:1.0 
0.0 8.0 0.0 0.0 26:2.0 66:1.0 147:1.0 942:1.0 
0.0 3.012915224021602 0.0 0.0 11:1.0 14:1.0 15:1.0 23:1.0 50:2.0 51:1.0 68:1.0 97:1.0 99:1.0 100:1.0 109:1.0 151:1.0 202:1.0 265:1.0 299:1.0 319:1.0 832:1.0 1070:1.0 1237:1.0 1547:1.0 2854:1.0 
8.0 4.578678786265902 3.2284994222096417 0.2551029101670606 14:1.0 15:1.0 19:1.0 22:1.0 39:1.0 49:1.0 50:1.0 56:1.0 92:1.0 142:1.0 232:1.0 265:1.0 278:1.0 455:1.0 710:2.0 2819:1.0 22986:1.0 22987:1.0 22988:1.0 
5.886546176377552 0.0 7.4688773608377685 0.7255663564899022 14:1.0 15:1.0 26:2.0 29:1.0 32:1.0 56:1.0 72:1.0 82:1.0 107:1.0 110:1.0 142:1.0 151:1.0 217:1.0 455:1.0 472:1.0 563:1.0 627:1.0 743:1.0 2883:1.0 3267:1.0 3502:1.0 4475:1.0 32604:1.0 
0.0 0.0 5.232521750953715 0.0 3:1.0 106:1.0 134:1.0 140:1.0 2383:1.0 3379:1.0 
8.0 0.0 0.0 0.0 19:1.0 49:1.0 53:1.0 56:1.0 92:1.0 207:1.0 446:1.0 570:1.0 
0.0 1.6348929526990004 0.0 0.0 3:2.0 14:1.0 15:1.0 25:1.0 28:4.0 34:1.0 56:3.0 221:1.0 249:1.0 294:1.0 323:1.0 359:1.0 856:1.0 990:1.0 2370:1.0 2675:1.0 3173:1.0 4282:1.0 4398:1.0 4788:1.0 7470:1.0 20516:1.0 31797:1.0 
8.0 8.0 3.2236219832251236 0.8654916835955657 28:2.0 66:1.0 92:1.0 97:1.0 278:1.0 312:1.0 590:1.0 4098:1.0 11247:1.0 26532:1.0 
2.8128886915334608 0.008270298157796958 0.0 1.0935429238383854 3:1.0 13:1.0 14:1.0 15:1.0 28:2.0 32:1.0 43:1.0 50:2.0 64:1.0 83:1.0 90:2.0 96:1.0 150:1.0 249:1.0 265:1.0 367:1.0 375:1.0 500:1.0 619:1.0 697:1.0 1070:1.0 1698:1.0 2185:1.0 2256:1.0 6064:1.0 6745:1.0 36195:1.0 
7.517967510372701 5.068121365491378 4.9429149356686795 0.6554805029992522 29:1.0 39:1.0 50:1.0 100:1.0 255:1.0 434:1.0 4150:1.0 5096:1.0 6451:1.0 7468:1.0 8208:1.0 41282:1.0 
3.40123346160724 8.0 6.95946733002279 0.0 26:1.0 56:2.0 99:1.0 217:1.0 253:1.0 353:1.0 362:1.0 568:1.0 603:1.0 2557:1.0 
3.889775189799145 4.054812814958459 2.4554062310429483 0.0 9:1.0 26:1.0 39:1.0 56:2.0 66:1.0 92:1.0 97:2.0 133:1.0 138:1.0 139:1.0 142:1.0 263:2.0 470:1.0 586:1.0 598:1.0 1506:1.0 1586:1.0 8507:1.0 21505:1.0 24653:1.0 25405:1.0 26307:1.0 33486:1.0 
8.0 8.0 5.1899013599745825 0.0 12:1.0 13:1.0 26:1.0 28:2.0 31:1.0 127:1.0 534:1.0 840:1.0 1453:1.0 1493:1.0 4412:1.0 5236:1.0 12433:1.0 14485:1.0 
0.0 4.528637375960825 8.0 0.0 3:2.0 9:1.0 14:1.0 15:1.0 25:1.0 39:1.0 64:2.0 87:1.0 92:2.0 107:1.0 146:1.0 151:1.0 202:1.0 249:1.0 286:1.0 291:1.0 365:1.0 367:2.0 494:1.0 1148:1.0 3427:1.0 4866:1.0 5262:1.0 7272:1.0 13087:1.0 
0.0 1.8705495918299688 0.04618606977763762 0.0 3:1.0 64:4.0 65:4.0 89:1.0 90:1.0 142:1.0 173:1.0 217:1.0 247:1.0 479:1.0 615:1.0 753:1.0 1302:1.0 1654:1.0 2054:1.0 2301:1.0 4218:1.0 23519:1.0 
8.0 6.649499939604531 0.035364828427513026 0.0 14:1.0 15:1.0 22:1.0 25:1.0 29:1.0 32:2.0 39:2.0 44:1.0 49:1.0 56:1.0 82:1.0 92:1.0 138:1.0 139:1.0 174:1.0 286:1.0 353:1.0 506:1.0 570:1.0 730:1.0 987:1.0 1777:1.0 2241:1.0 
0.0 6.105306965699339 0.0 0.0 9:1.0 11:1.0 13:2.0 66:1.0 323:1.0 2026:1.0 2401:1.0 4937:1.0 7845:1.0 
0.0 6.504760201030099 0.0 0.0 9:1.0 14:1.0 15:1.0 29:1.0 57:1.0 99:1.0 106:1.0 145:1.0 375:1.0 418:1.0 1897:1.0 3379:1.0 6089:1.0 11904:1.0 
2.3470184584638427 1.789556622021713 8.0 0.0 14:1.0 15:1.0 29:1.0 97:1.0 100:1.0 134:1.0 182:1.0 186:1.0 263:2.0 284:1.0 323:1.0 367:1.0 1506:1.0 4506:1.0 10312:1.0 
8.0 4.3674451328969015 0.0 0.0 3:1.0 14:1.0 15:1.0 22:1.0 32:1.0 49:1.0 56:3.0 97:1.0 100:1.0 151:1.0 249:1.0 263:1.0 353:1.0 374:1.0 394:1.0 823:1.0 842:1.0 930:1.0 1486:1.0 
0.0 0.0 3.4663016914993148 0.0 9:1.0 14:1.0 15:1.0 32:1.0 33:1.0 217:1.0 367:1.0 938:1.0 1183:1.0 2323:1.0 3670:1.0 5234:1.0 5850:1.0 17215:1.0 
5.861743786029109 1.1051455287038408 0.0 2.3460079425906626 7:1.0 14:1.0 15:1.0 16:1.0 29:1.0 32:1.0 46:1.0 66:1.0 92:1.0 97:1.0 174:1.0 182:1.0 189:1.0 278:1.0 363:1.0 367:1.0 1304:1.0 9931:1.0 
2.028239714953917 6.136375362027608 5.758936029988029 0.0 7:1.0 9:1.0 11:1.0 13:3.0 26:2.0 28:6.0 100:1.0 143:1.0 149:1.0 180:1.0 217:1.0 367:1.0 938:1.0 1379:1.0 1435:1.0 2585:1.0 4259:1.0 7267:1.0 15690:1.0 28389:1.0 
8.0 8.0 8.0 2.058755653443262 25:1.0 28:2.0 47:1.0 56:1.0 92:1.0 100:1.0 101:1.0 177:1.0 470:1.0 544:1.0 621:1.0 1279:1.0 1356:1.0 3883:1.0 
4.240742769880228 0.0 8.0 0.36035638802335707 14:1.0 15:1.0 50:3.0 134:1.0 19511:1.0 
0.0 8.0 0.0 0.0 3:1.0 11:1.0 14:1.0 15:1.0 25:1.0 66:1.0 90:1.0 109:1.0 249:1.0 432:1.0 3459:1.0 4313:1.0 4765:1.0 6222:1.0 17400:1.0 
8.0 8.0 8.0 1.394945589779356 26:1.0 50:1.0 64:1.0 74:1.0 217:1.0 1435:1.0 1963:1.0 17043:1.0 
1.881784110790522 0.41661761555322513 0.0 0.06496486721004818 14:1.0 15:1.0 26:1.0 32:3.0 50:1.0 56:1.0 92:1.0 97:3.0 106:1.0 150:1.0 177:1.0 217:1.0 265:1.0 278:1.0 331:1.0 712:1.0 852:1.0 1651:1.0 1974:1.0 2067:1.0 3887:1.0 8047:1.0 14006:1.0 
4.678850322106146 0.0 0.0 0.0 3:1.0 14:1.0 15:1.0 29:1.0 56:1.0 97:2.0 110:1.0 207:1.0 249:1.0 263:1.0 278:1.0 323:1.0 360:1.0 367:1.0 2055:1.0 6998:1.0 7370:1.0 30639:1.0 
0.0 6.353684064593141 0.0 0.0 11:1.0 29:1.0 90:1.0 152:1.0 173:1.0 375:1.0 2140:1.0 2471:1.0 12482:1.0 
0.0 2.9152048351602784 0.0 0.0 7:1.0 11:1.0 22:1.0 28:1.0 29:1.0 90:2.0 117:1.0 196:1.0 654:1.0 694:1.0 740:1.0 1129:1.0 2687:1.0 18119:1.0 
0.0 0.01366299864080407 0.0 0.0 9:1.0 28:6.0 134:1.0 1419:1.0 1470:1.0 3452:1.0 4036:1.0 4134:1.0 22514:1.0 22515:1.0 22516:1.0 
2.593013793199973 0.0 0.0 0.0 3:2.0 4:1.0 14:2.0 15:2.0 26:1.0 32:2.0 39:1.0 50:3.0 60:1.0 97:1.0 109:1.0 249:2.0 255:1.0 850:1.0 904:1.0 3683:1.0 3859:1.0 4493:1.0 24784:1.0 24785:1.0 
0.4978480237739034 2.0653882505533394 0.0 0.0 9:1.0 11:1.0 14:1.0 15:1.0 21:1.0 22:1.0 50:1.0 68:2.0 92:1.0 253:1.0 470:1.0 769:1.0 2880:1.0 4690:1.0 
6.791375091465679 1.628483781678045 1.6463840828399312 1.575006949746384 14:1.0 15:1.0 28:2.0 29:1.0 32:2.0 50:3.0 74:1.0 92:1.0 100:2.0 106:1.0 136:1.0 142:1.0 182:1.0 249:1.0 265:1.0 375:1.0 381:1.0 470:1.0 517:1.0 643:1.0 677:1.0 1193:1.0 1259:1.0 2151:1.0 11522:1.0 13835:1.0 
5.80655517996529 8.0 8.0 0.0 26:1.0 28:2.0 142:1.0 217:1.0 835:1.0 1029:1.0 1632:1.0 1655:1.0 2127:1.0 3402:1.0 
0.0 8.0 4.126007744530897 0.708970296302123 3:2.0 9:1.0 11:1.0 13:1.0 14:1.0 15:1.0 26:1.0 28:2.0 30:1.0 217:1.0 249:1.0 374:1.0 563:1.0 686:1.0 694:1.0 1535:1.0 1964:1.0 3226:1.0 7026:1.0 12335:1.0 37189:1.0 
2.15259266157332 0.0 0.0 0.0 14:1.0 15:1.0 21:1.0 22:1.0 26:2.0 28:6.0 29:1.0 56:1.0 65:1.0 88:1.0 97:1.0 100:1.0 2301:1.0 4134:1.0 4135:1.0 
0.0 6.752729153991186 0.0 0.0 9:1.0 11:1.0 13:1.0 26:2.0 39:1.0 57:1.0 66:1.0 100:1.0 323:1.0 876:1.0 1476:1.0 2377:1.0 5589:1.0 8294:1.0 9311:1.0 
4.084895077864303 8.0 0.8664288554964475 0.0 11:1.0 13:1.0 21:1.0 22:1.0 25:1.0 28:2.0 32:1.0 50:1.0 68:1.0 90:1.0 138:1.0 196:1.0 367:1.0 460:1.0 550:1.0 634:1.0 830:1.0 1103:1.0 2153:1.0 4378:1.0 12054:1.0 21359:1.0 
4.130289989541368 1.3977734899827068 0.3627584079015333 0.0 14:1.0 15:1.0 21:1.0 22:1.0 23:1.0 26:2.0 28:6.0 29:1.0 42:1.0 50:1.0 56:1.0 72:1.0 92:1.0 110:1.0 151:1.0 356:1.0 793:1.0 813:1.0 814:1.0 1468:1.0 1613:1.0 1686:1.0 2701:1.0 3088:1.0 3855:2.0 5521:1.0 
0.0 0.0 6.670947606742406 0.0 14:1.0 15:1.0 29:1.0 34:1.0 50:4.0 55:1.0 56:1.0 134:1.0 151:1.0 157:1.0 189:1.0 356:1.0 455:1.0 519:1.0 2228:1.0 3019:1.0 
8.0 8.0 0.0 0.21912211536785858 3:1.0 14:1.0 15:1.0 23:1.0 25:1.0 26:1.0 32:1.0 33:1.0 41:1.0 50:1.0 68:1.0 109:1.0 145:1.0 620:1.0 799:1.0 832:1.0 1366:1.0 1773:1.0 
8.0 4.315541253093671 3.144261151958151 1.3617351631936478 12:1.0 21:1.0 26:1.0 39:2.0 46:1.0 82:1.0 92:2.0 98:1.0 136:1.0 217:1.0 367:1.0 375:1.0 494:1.0 498:1.0 596:1.0 673:1.0 684:1.0 1172:2.0 1320:1.0 1693:1.0 1822:1.0 2332:1.0 6254:1.0 
0.5029993780067058 2.5446362301844254 6.959755970730743 0.0 9:1.0 14:1.0 15:1.0 21:1.0 26:1.0 32:1.0 39:1.0 56:1.0 106:1.0 107:1.0 146:1.0 183:1.0 202:1.0 217:1.0 227:1.0 327:1.0 370:1.0 670:1.0 889:1.0 1058:1.0 1748:1.0 2181:1.0 4234:1.0 16170:1.0 
8.0 8.0 0.0 2.3289175023529034 21:1.0 22:1.0 200:1.0 892:1.0 1172:1.0 4483:1.0 5679:1.0 
0.0 8.0 0.0 0.0 7:1.0 13:1.0 30:1.0 92:1.0 284:1.0 434:1.0 5103:1.0 35520:1.0 
0.0 0.0 1.0646699229459209 0.0 9:1.0 13:1.0 14:1.0 15:1.0 28:2.0 53:1.0 64:1.0 90:1.0 97:2.0 134:1.0 175:1.0 192:1.0 255:1.0 334:1.0 424:1.0 603:1.0 621:1.0 643:1.0 1019:1.0 2525:1.0 2749:1.0 4314:1.0 4340:1.0 6627:1.0 12081:1.0 39674:1.0 
8.0 8.0 8.0 3.191082476393309 26:2.0 39:2.0 87:1.0 104:1.0 177:1.0 217:1.0 227:1.0 253:1.0 313:1.0 452:1.0 533:1.0 793:1.0 1172:1.0 1522:1.0 
8.0 8.0 8.0 5.5610522524898744 13:1.0 26:1.0 56:1.0 97:1.0 100:1.0 217:1.0 286:1.0 359:1.0 407:1.0 585:1.0 1777:1.0 2370:1.0 40216:1.0 
0.9099719858815883 8.0 0.0 1.8609920835814255 14:1.0 15:1.0 29:1.0 109:1.0 367:1.0 689:1.0 949:1.0 39040:1.0 
6.751386373980815 5.756520336555138 0.0 0.0 9:1.0 27:1.0 32:2.0 36:1.0 39:1.0 53:1.0 64:1.0 66:1.0 68:1.0 92:1.0 97:2.0 100:1.0 142:1.0 189:1.0 286:1.0 315:1.0 407:1.0 568:1.0 617:1.0 892:1.0 903:1.0 1011:1.0 1014:1.0 1200:1.0 1265:1.0 3177:1.0 6909:1.0 
0.0 0.9771918286792229 0.0 0.0 3:2.0 9:1.0 11:1.0 14:1.0 15:1.0 26:4.0 28:2.0 64:1.0 97:1.0 101:1.0 138:1.0 142:1.0 180:2.0 249:1.0 343:1.0 932:1.0 1795:1.0 2549:1.0 2865:1.0 4100:1.0 11565:1.0 11566:1.0 
6.793568974719056 4.276496924534218 0.0 0.0 9:1.0 14:2.0 15:2.0 50:3.0 92:1.0 274:1.0 361:1.0 367:1.0 948:1.0 1831:1.0 2251:1.0 5868:1.0 
0.0 0.26469387026721664 0.0 1.229316111587307 3:1.0 7:1.0 14:1.0 15:1.0 26:1.0 66:1.0 92:1.0 158:1.0 186:1.0 196:1.0 249:1.0 586:1.0 659:1.0 686:1.0 2089:1.0 
8.0 8.0 3.1038189593167136 0.0 7:1.0 14:1.0 15:1.0 26:1.0 217:1.0 331:1.0 367:1.0 710:1.0 793:1.0 2448:1.0 3394:1.0 
2.902263493534215 6.523582307964189 5.57647195081698 1.5922078187193731 7:1.0 14:1.0 15:1.0 26:1.0 29:1.0 55:1.0 66:1.0 92:1.0 217:1.0 286:1.0 361:1.0 363:1.0 365:1.0 367:1.0 374:1.0 414:1.0 424:1.0 470:1.0 1051:1.0 1315:1.0 1771:1.0 3551:1.0 12393:1.0 12394:1.0 
0.945987935972999 0.0 0.0 0.0 13:1.0 14:1.0 15:1.0 28:2.0 32:1.0 50:1.0 81:1.0 117:1.0 121:1.0 122:1.0 1536:2.0 4221:1.0 14188:1.0 14189:1.0 14190:1.0 14191:1.0 14192:1.0 14193:1.0 
4.818147331330196 6.909083748310287 0.26369484578571684 0.0 3:1.0 13:1.0 14:1.0 15:1.0 56:2.0 110:1.0 142:1.0 162:1.0 182:1.0 217:1.0 236:1.0 249:1.0 3099:1.0 4276:1.0 5125:1.0 21519:1.0 
8.0 8.0 8.0 1.2754102451058478 14:1.0 15:1.0 23:1.0 26:1.0 28:2.0 32:2.0 39:2.0 56:1.0 82:1.0 97:1.0 100:1.0 105:1.0 146:1.0 150:1.0 165:1.0 200:1.0 202:1.0 217:1.0 232:1.0 265:1.0 365:1.0 799:1.0 973:1.0 1028:1.0 1468:1.0 4368:1.0 7699:1.0 9601:1.0 
8.0 8.0 8.0 0.0 3:1.0 4:1.0 11:1.0 30:1.0 205:1.0 217:1.0 248:1.0 478:1.0 736:1.0 
0.0 0.9927259801633974 1.080242269957743 0.0 3:1.0 14:1.0 15:1.0 25:1.0 28:6.0 29:1.0 90:1.0 92:2.0 97:1.0 110:1.0 142:1.0 217:1.0 249:1.0 321:1.0 361:1.0 367:1.0 428:2.0 515:1.0 914:1.0 2450:1.0 3226:1.0 3883:1.0 3977:1.0 4978:1.0 7687:1.0 
0.0 2.639277234751721 0.0 0.0 3:2.0 9:1.0 14:1.0 15:1.0 26:2.0 28:2.0 29:2.0 56:1.0 92:1.0 107:1.0 139:1.0 142:1.0 173:1.0 217:1.0 249:1.0 1114:2.0 1277:1.0 1756:1.0 2033:1.0 4201:1.0 4584:1.0 5076:1.0 5355:1.0 7876:1.0 7910:1.0 
2.257413788459563 0.0 0.0 0.0 15:1.0 26:1.0 28:2.0 46:1.0 50:5.0 66:1.0 86:1.0 92:1.0 97:1.0 106:1.0 279:1.0 295:1.0 367:1.0 506:1.0 599:1.0 1265:1.0 1486:1.0 1951:1.0 2497:1.0 5038:1.0 18779:1.0 18780:1.0 
0.0 3.53459859295589 2.736923765435504 0.0 7:1.0 14:1.0 15:1.0 26:1.0 33:1.0 34:1.0 74:1.0 138:1.0 139:1.0 142:1.0 217:1.0 266:1.0 295:1.0 356:1.0 367:1.0 576:1.0 649:1.0 919:1.0 1071:1.0 4512:1.0 
0.0 0.0 4.163430145045006 0.0 25:1.0 26:1.0 109:1.0 145:1.0 146:1.0 162:1.0 284:1.0 534:1.0 1152:1.0 1186:1.0 1444:1.0 2209:1.0 2677:1.0 
1.60874223904543 8.0 1.9771345458239158 0.0 11:1.0 39:1.0 56:1.0 173:1.0 252:1.0 375:1.0 1079:1.0 1852:1.0 2467:1.0 4619:1.0 
8.0 8.0 5.763841905308661 1.4251680190488991 14:1.0 15:1.0 68:1.0 97:1.0 289:1.0 364:1.0 413:1.0 498:1.0 585:1.0 1243:2.0 2611:1.0 5349:1.0 8632:1.0 
8.0 8.0 1.5394565214992573 0.0 26:1.0 142:1.0 174:1.0 217:1.0 370:2.0 374:1.0 525:1.0 617:1.0 652:1.0 670:1.0 1292:1.0 7512:1.0 
0.0 0.9716462833585152 0.0 0.0 9:1.0 14:1.0 15:1.0 22:1.0 25:1.0 26:1.0 28:2.0 30:1.0 32:1.0 56:1.0 92:1.0 266:1.0 278:1.0 298:1.0 299:1.0 375:1.0 594:1.0 640:1.0 892:1.0 1692:1.0 2361:1.0 2582:1.0 3868:1.0 4545:1.0 19183:1.0 
1.3989076171740231 6.2382852939991995 0.0 0.0 3:2.0 13:2.0 14:2.0 15:2.0 28:6.0 32:1.0 39:1.0 64:1.0 90:1.0 97:1.0 142:1.0 217:1.0 249:1.0 888:1.0 921:1.0 928:1.0 1028:1.0 1554:1.0 1767:1.0 4118:1.0 6628:1.0 7512:1.0 26321:1.0 
8.0 8.0 8.0 2.075616657491266 11:1.0 217:1.0 749:1.0 994:1.0 
2.5158291973637117 2.0427904909112637 8.0 0.0 22:1.0 28:2.0 39:1.0 139:1.0 149:1.0 252:1.0 437:1.0 588:1.0 681:1.0 948:1.0 983:1.0 1175:1.0 4455:1.0 4558:1.0 7521:1.0 
0.010893255088622801 0.0 8.0 0.0 28:2.0 29:1.0 32:1.0 90:2.0 97:2.0 134:1.0 174:1.0 256:1.0 263:1.0 374:1.0 525:1.0 670:1.0 840:1.0 1506:1.0 4592:1.0 6328:1.0 15154:1.0 20756:1.0 30589:1.0 
4.498987723070995 4.110440914558268 0.0 0.0 3:1.0 4:1.0 14:1.0 15:1.0 78:2.0 80:1.0 145:1.0 249:1.0 1665:2.0 1821:1.0 3215:1.0 5515:1.0 6128:1.0 7271:1.0 10071:1.0 11512:1.0 16281:1.0 25794:1.0 25795:1.0 25796:1.0 
0.0 8.0 0.0 0.0 11:1.0 66:1.0 855:1.0 
2.7634926642438296 0.0 0.0 0.5421310197550374 14:3.0 15:3.0 25:1.0 26:1.0 66:1.0 72:1.0 90:1.0 92:1.0 107:1.0 133:1.0 173:2.0 189:1.0 249:1.0 265:1.0 416:1.0 498:1.0 756:1.0 771:1.0 898:1.0 907:1.0 932:1.0 1326:1.0 2390:1.0 10246:1.0 
8.0 0.0 0.0 0.0 3:1.0 14:1.0 15:1.0 22:1.0 26:1.0 28:2.0 49:1.0 50:1.0 72:2.0 82:1.0 97:1.0 100:1.0 107:1.0 174:1.0 189:1.0 265:1.0 279:1.0 738:1.0 753:1.0 774:1.0 840:1.0 1071:1.0 1600:1.0 13104:1.0 
0.0 5.998327083280774 0.0 0.0 11:1.0 142:1.0 217:1.0 323:1.0 325:1.0 964:1.0 1405:1.0 2075:1.0 
0.521097467799072 3.8492865454788316 0.0 0.0 3:1.0 13:1.0 14:1.0 15:1.0 26:3.0 32:1.0 61:1.0 92:1.0 97:1.0 204:1.0 217:1.0 249:1.0 265:1.0 267:1.0 367:1.0 498:1.0 552:1.0 652:1.0 749:1.0 918:1.0 985:1.0 2653:1.0 5354:1.0 5946:1.0 6627:1.0 31790:1.0 
0.0 3.65683339513073 3.376844143080769 0.0 9:1.0 14:1.0 15:1.0 17:1.0 28:2.0 31:1.0 68:1.0 149:2.0 150:1.0 160:1.0 351:1.0 367:2.0 560:2.0 585:1.0 970:1.0 1002:2.0 2372:1.0 2823:1.0 4475:1.0 21352:1.0 21353:1.0 21354:1.0 
2.0870743674569874 0.888371061894454 1.875433258742678 0.0 7:2.0 14:1.0 15:1.0 21:1.0 22:1.0 26:1.0 29:2.0 32:2.0 72:1.0 92:1.0 97:3.0 107:1.0 165:1.0 182:1.0 295:1.0 353:1.0 597:1.0 694:1.0 926:1.0 2414:1.0 2477:1.0 5971:1.0 16637:1.0 23939:1.0 
0.0 8.0 0.0 0.12927994610154492 11:1.0 28:2.0 1219:1.0 1879:1.0 4595:1.0 16188:1.0 
0.0 8.0 0.0 0.0 3:3.0 11:1.0 14:4.0 15:4.0 28:2.0 68:1.0 97:1.0 109:1.0 142:1.0 249:2.0 252:1.0 316:1.0 878:1.0 1165:1.0 1889:1.0 14522:1.0 
7.355764183990909 5.920203066219596 1.2002428756170906 0.0 9:1.0 13:1.0 15:1.0 36:1.0 56:2.0 72:1.0 146:1.0 167:1.0 217:1.0 519:1.0 635:1.0 659:2.0 907:1.0 1379:2.0 5987:1.0 31599:1.0 31600:1.0 
8.0 8.0 2.9952365009977204 1.0727535996527622 9:1.0 21:1.0 22:1.0 23:1.0 42:1.0 50:1.0 74:1.0 696:1.0 1451:1.0 1621:1.0 2020:1.0 3771:1.0 31552:1.0 
8.0 8.0 8.0 1.0307527622913208 9:1.0 26:1.0 56:1.0 100:1.0 136:1.0 217:1.0 365:1.0 367:1.0 374:1.0 523:1.0 527:1.0 660:1.0 6672:1.0 6673:1.0 8698:1.0 10350:1.0 10351:1.0 
8.0 5.689225050793152 5.540566575863393 0.0 14:1.0 15:1.0 26:1.0 142:1.0 145:1.0 217:1.0 367:1.0 793:1.0 1148:1.0 1468:1.0 1554:1.0 2587:1.0 
0.0 4.908078516305738 3.4654257671910083 0.0 14:3.0 15:3.0 28:6.0 30:1.0 32:1.0 68:1.0 97:1.0 99:1.0 149:1.0 151:1.0 374:1.0 452:1.0 470:1.0 619:1.0 837:1.0 1592:1.0 1803:1.0 2527:1.0 2678:1.0 7988:1.0 10455:1.0 31649:1.0 
0.0 6.6809026360819725 0.0 0.0 3:1.0 11:1.0 28:1.0 29:1.0 56:1.0 90:1.0 197:1.0 204:1.0 217:1.0 1080:1.0 2775:1.0 5085:1.0 5818:1.0 43107:1.0 43108:1.0 
8.0 0.0 0.0 0.0 28:2.0 207:1.0 277:1.0 356:1.0 703:1.0 1779:1.0 5177:1.0 7702:1.0 9486:1.0 12517:1.0 21935:1.0 
6.38067728295792 8.0 8.0 0.0 11:1.0 29:1.0 217:1.0 316:1.0 985:1.0 11711:1.0 
0.0 2.3702024821596335 0.0 0.0311981926894382 11:1.0 13:4.0 39:2.0 53:1.0 90:2.0 96:1.0 134:1.0 487:1.0 686:1.0 2930:1.0 5652:1.0 23136:1.0 37848:1.0 
1.6882814663709342 5.051387380720872 5.390839782346623 0.0 3:1.0 11:1.0 14:1.0 15:1.0 25:1.0 26:1.0 31:1.0 36:1.0 39:1.0 47:1.0 56:1.0 57:1.0 97:1.0 217:1.0 267:1.0 364:1.0 365:1.0 367:1.0 506:1.0 618:1.0 4224:1.0 4586:1.0 13135:2.0 17013:1.0 
8.0 6.462369473889618 3.2978606575437994 0.0 13:1.0 21:1.0 22:1.0 61:1.0 92:1.0 97:1.0 100:1.0 107:1.0 110:1.0 142:2.0 160:1.0 221:1.0 255:1.0 663:1.0 1014:1.0 1053:1.0 1072:1.0 1603:1.0 2205:1.0 6621:1.0 11141:1.0 41031:1.0 
0.0 3.6424236845954265 0.0 0.0 9:1.0 11:1.0 14:1.0 15:1.0 23:1.0 26:1.0 28:2.0 35:1.0 80:1.0 97:1.0 278:1.0 809:1.0 1203:1.0 12935:1.0 12938:1.0 27015:1.0 31918:1.0 34277:1.0 
0.0 0.0 8.0 0.0 14:1.0 15:1.0 134:1.0 183:1.0 227:1.0 
6.11023467478254 0.0 0.0 0.0 4:1.0 26:1.0 28:2.0 29:1.0 32:1.0 39:2.0 50:1.0 92:1.0 142:1.0 151:1.0 173:1.0 207:1.0 263:2.0 284:1.0 367:1.0 377:1.0 447:1.0 676:1.0 1825:1.0 2056:2.0 2501:1.0 8207:1.0 27832:1.0 27833:1.0 
0.0 8.0 0.0 0.0 3:2.0 11:1.0 26:1.0 28:2.0 30:1.0 34:1.0 90:1.0 92:1.0 217:1.0 221:1.0 445:1.0 1465:1.0 1753:1.0 1851:1.0 3173:1.0 4083:1.0 7876:1.0 17893:1.0 25834:1.0 
8.0 0.0 0.0 0.0 13:1.0 29:1.0 32:1.0 46:1.0 53:1.0 56:1.0 97:1.0 110:1.0 142:1.0 207:1.0 1304:1.0 2775:1.0 
0.0 5.210310312923359 0.0 0.17053139823200625 11:1.0 66:1.0 82:2.0 90:2.0 142:2.0 367:1.0 374:1.0 525:1.0 3252:1.0 4019:1.0 4707:1.0 13405:1.0 
0.0 4.063191034275747 0.0 0.0 3:1.0 13:2.0 14:1.0 15:1.0 26:1.0 39:1.0 109:1.0 173:2.0 249:1.0 304:1.0 2079:1.0 3416:1.0 4417:1.0 15160:1.0 15161:1.0 15162:1.0 
4.363891678065107 0.0 0.0 0.0 21:1.0 22:1.0 26:1.0 29:1.0 48:1.0 97:2.0 100:2.0 104:1.0 142:1.0 174:1.0 196:1.0 286:1.0 295:1.0 416:1.0 573:1.0 608:1.0 730:1.0 862:1.0 907:2.0 1148:1.0 2422:1.0 6519:1.0 7931:2.0 11327:1.0 
0.0 1.8933699400764314 0.0 0.0 3:1.0 11:1.0 14:1.0 15:1.0 35:1.0 66:1.0 249:1.0 1402:1.0 1984:1.0 2501:1.0 6877:1.0 28448:1.0 
1.394701935754603 1.0907703992885793 0.0 0.0 14:1.0 15:1.0 21:1.0 22:1.0 32:2.0 50:1.0 56:1.0 92:1.0 97:1.0 100:1.0 173:1.0 253:1.0 284:1.0 323:1.0 470:1.0 585:1.0 689:1.0 758:1.0 774:1.0 867:1.0 983:1.0 1093:1.0 2781:1.0 2816:1.0 5156:1.0 
8.0 4.199078031751927 8.0 0.0 14:2.0 15:2.0 26:1.0 32:1.0 50:1.0 107:1.0 217:1.0 265:1.0 361:1.0 938:1.0 1613:1.0 1864:1.0 2643:1.0 
8.0 8.0 0.0 0.0 7:1.0 13:3.0 28:1.0 66:1.0 770:1.0 9977:1.0 
0.16832423132157734 0.0 6.242424387736319 0.0 7:1.0 13:1.0 28:1.0 56:1.0 149:1.0 162:1.0 248:1.0 456:1.0 507:1.0 585:1.0 2169:1.0 2349:1.0 3156:1.0 6708:1.0 
8.0 8.0 8.0 0.0 3:1.0 14:2.0 15:2.0 18:1.0 50:2.0 217:1.0 227:2.0 249:1.0 573:1.0 29654:1.0 
8.0 7.6599028113777585 7.764851528771493 0.0 15:1.0 26:1.0 68:1.0 151:1.0 596:1.0 754:1.0 7882:1.0 9169:1.0 
2.496439773649467 0.0 0.0 0.0 3:1.0 14:1.0 15:1.0 21:1.0 22:1.0 29:1.0 32:2.0 46:1.0 68:1.0 74:2.0 82:1.0 92:2.0 100:1.0 142:1.0 174:1.0 249:1.0 286:1.0 291:1.0 585:1.0 2180:1.0 2497:1.0 3047:1.0 3120:1.0 9070:1.0 9071:1.0 9072:1.0 9073:1.0 9074:1.0 
8.0 8.0 8.0 0.0 39:1.0 65:1.0 97:1.0 99:1.0 100:1.0 110:1.0 145:1.0 171:1.0 183:1.0 217:1.0 659:1.0 981:1.0 1448:1.0 1599:1.0 
0.0 7.561379882064809 0.0 0.0 3:1.0 4:1.0 11:1.0 132:1.0 142:1.0 220:1.0 277:1.0 452:1.0 909:1.0 
4.427425616601671 0.0 2.3071645330918447 0.0 3:1.0 14:1.0 15:1.0 28:2.0 29:1.0 32:2.0 82:1.0 92:1.0 97:3.0 100:1.0 105:1.0 180:1.0 183:1.0 189:1.0 221:1.0 278:1.0 284:1.0 367:1.0 407:1.0 434:1.0 659:1.0 852:1.0 883:1.0 1229:1.0 1257:1.0 1790:1.0 2207:1.0 3561:1.0 6259:1.0 
0.0 0.0 3.3274081251146472 0.0 13:1.0 25:2.0 26:1.0 28:2.0 56:1.0 90:1.0 217:1.0 618:1.0 719:1.0 733:1.0 919:1.0 1028:1.0 1082:2.0 1124:3.0 1212:1.0 3254:1.0 8192:1.0 10832:1.0 
8.0 8.0 8.0 0.0 29:1.0 142:1.0 217:1.0 263:1.0 7508:1.0 20417:1.0 
0.0 1.7048992671694683 0.0 0.0 11:1.0 14:1.0 15:1.0 66:1.0 231:1.0 809:1.0 899:1.0 1245:1.0 1315:1.0 2957:1.0 13488:1.0 20127:1.0 25483:1.0 
0.0 1.8251829547930913 0.3208902626913622 0.0 3:3.0 11:1.0 14:1.0 15:1.0 22:1.0 25:1.0 28:2.0 29:1.0 39:1.0 50:1.0 142:1.0 171:1.0 217:1.0 249:1.0 323:1.0 367:1.0 637:1.0 719:1.0 1139:1.0 1152:1.0 1292:1.0 1576:1.0 1756:1.0 1768:1.0 1818:1.0 2579:1.0 21077:1.0 
3.323858155901715 0.0 0.0 0.0 28:2.0 30:1.0 32:1.0 53:1.0 97:1.0 109:1.0 284:1.0 326:1.0 356:1.0 374:1.0 407:1.0 474:1.0 618:1.0 863:1.0 1221:1.0 1877:1.0 1984:1.0 21534:1.0 
5.712109139989215 7.01991715663497 0.0 0.0 3:1.0 26:1.0 29:1.0 39:1.0 56:1.0 74:1.0 90:1.0 109:1.0 151:1.0 202:1.0 263:1.0 283:1.0 312:1.0 337:1.0 876:1.0 15422:1.0 
0.0 6.047460256970128 0.8497343977753553 0.0 3:2.0 7:1.0 9:1.0 11:1.0 26:1.0 39:1.0 45:1.0 97:1.0 183:1.0 205:1.0 217:1.0 334:1.0 905:1.0 1152:1.0 1399:1.0 1503:1.0 3949:1.0 4862:1.0 6834:1.0 7891:1.0 13019:1.0 
0.0 0.0 1.2863969389440755 0.0 26:1.0 28:6.0 30:1.0 32:2.0 44:1.0 92:2.0 97:1.0 99:1.0 100:1.0 142:1.0 146:1.0 149:1.0 323:1.0 367:1.0 585:1.0 938:1.0 1257:1.0 1590:1.0 1705:1.0 2056:1.0 2372:1.0 3096:1.0 6191:1.0 12201:1.0 14311:1.0 
1.1074529159539686 0.0 1.424525840031065 0.0 3:1.0 28:2.0 29:2.0 39:1.0 46:1.0 56:1.0 70:1.0 106:1.0 149:1.0 158:1.0 196:1.0 265:1.0 286:1.0 422:1.0 859:1.0 934:1.0 1175:1.0 1465:1.0 2234:1.0 2392:1.0 3447:1.0 3550:1.0 3587:1.0 3858:1.0 11945:1.0 
4.251793999251975 8.0 3.487660145048649 0.9709199870127646 3:1.0 11:1.0 217:1.0 914:1.0 975:1.0 976:1.0 977:1.0 10188:1.0 10189:1.0 
7.360197556150393 1.7166055389936652 1.9335645171472262 0.0 21:1.0 22:1.0 31:1.0 41:1.0 42:1.0 44:1.0 50:3.0 53:1.0 64:1.0 92:3.0 100:1.0 142:1.0 145:1.0 158:1.0 180:1.0 182:1.0 255:1.0 263:1.0 473:1.0 560:1.0 740:1.0 774:1.0 1655:1.0 1686:1.0 2254:1.0 2448:2.0 4379:1.0 8585:1.0 20074:1.0 
8.0 8.0 8.0 0.48786331070949684 3:1.0 14:1.0 15:1.0 26:1.0 32:1.0 34:1.0 56:1.0 71:1.0 82:1.0 100:1.0 217:1.0 249:1.0 359:1.0 378:1.0 558:1.0 1074:1.0 
0.0 0.43440456823960794 0.0 0.0 14:1.0 15:1.0 28:13.0 65:1.0 109:1.0 173:2.0 293:1.0 809:1.0 4505:1.0 29203:1.0 29204:1.0 29205:1.0 29206:1.0 29207:1.0 29208:1.0 29209:1.0 
8.0 8.0 8.0 0.0 14:1.0 15:1.0 97:1.0 100:1.0 106:1.0 145:1.0 149:1.0 202:1.0 670:1.0 938:1.0 
3.296071206933055 3.989875425682036 2.243209015294345 0.8333364861818306 3:3.0 26:1.0 29:1.0 39:1.0 87:1.0 92:1.0 97:2.0 100:2.0 165:1.0 359:1.0 374:1.0 401:1.0 434:1.0 521:1.0 585:2.0 2697:1.0 4106:2.0 4422:2.0 7571:2.0 
2.5746046536722136 8.0 8.0 0.41056228053475596 28:2.0 29:1.0 50:1.0 149:1.0 202:1.0 275:1.0 280:1.0 5310:1.0 13669:1.0 31993:1.0 31994:1.0 
2.5230343385501026 3.4701484674524874 0.0 0.0 3:1.0 9:1.0 14:1.0 15:1.0 28:1.0 50:1.0 66:1.0 92:1.0 249:1.0 263:1.0 367:1.0 1506:1.0 3326:1.0 20257:1.0 
8.0 8.0 8.0 0.0 9:1.0 14:1.0 15:1.0 26:1.0 107:1.0 157:1.0 217:1.0 218:1.0 255:1.0 440:1.0 689:1.0 726:1.0 1028:1.0 27387:1.0 
8.0 8.0 8.0 2.9204910528973462 11:1.0 12:1.0 26:1.0 39:1.0 97:1.0 151:1.0 217:1.0 255:1.0 407:1.0 1764:1.0 2075:1.0 2618:1.0 
8.0 8.0 7.6642576936237115 3.455563365328381 3:1.0 14:2.0 15:2.0 47:1.0 50:2.0 82:1.0 145:1.0 217:1.0 249:1.0 578:1.0 740:1.0 793:1.0 1257:1.0 1947:1.0 2572:1.0 3958:1.0 10739:1.0 
3.4201255811354305 7.084697531561884 8.0 0.0 3:1.0 14:1.0 15:1.0 26:1.0 28:2.0 29:1.0 39:1.0 61:1.0 142:1.0 151:1.0 217:1.0 249:1.0 356:1.0 361:1.0 362:1.0 440:1.0 895:1.0 904:1.0 905:1.0 1589:1.0 2435:1.0 5875:1.0 13163:1.0 16997:1.0 19728:1.0 
2.323641306838016 4.569705031086774 0.1309528254697253 0.5573108957012061 9:2.0 21:1.0 26:2.0 28:2.0 29:1.0 82:1.0 87:1.0 97:2.0 99:1.0 189:1.0 335:1.0 440:1.0 506:1.0 670:1.0 841:1.0 2860:1.0 3949:1.0 4110:1.0 5257:1.0 6574:1.0 7369:1.0 8503:1.0 9179:1.0 10842:1.0 39019:1.0 
8.0 0.0 2.3825615041080046 0.0 22:1.0 32:1.0 44:1.0 49:1.0 92:1.0 196:1.0 446:1.0 555:1.0 570:1.0 3119:1.0 
6.2655296557204485 8.0 0.0 0.20431919814202365 66:1.0 92:1.0 136:1.0 286:1.0 585:1.0 6947:1.0 42649:1.0 
3.920424770096767 4.487006390698216 8.0 2.255065100675506 13:1.0 50:2.0 85:1.0 149:1.0 255:1.0 841:1.0 9811:1.0 9812:1.0 
0.0 0.0 1.1130079468946616 0.0 11:1.0 13:1.0 28:2.0 134:1.0 182:1.0 585:1.0 911:1.0 994:1.0 
8.0 8.0 1.3396128381136303 0.0 7:1.0 28:2.0 29:1.0 39:2.0 60:1.0 74:1.0 92:3.0 97:1.0 137:1.0 189:1.0 248:1.0 263:1.0 327:1.0 494:1.0 1081:1.0 1483:1.0 2367:1.0 2383:1.0 2392:1.0 2654:1.0 2667:1.0 4735:1.0 8345:1.0 
8.0 8.0 8.0 0.0 3:1.0 9:1.0 39:1.0 92:1.0 166:1.0 217:1.0 225:1.0 229:1.0 255:1.0 1010:1.0 9951:1.0 9952:1.0 28534:1.0 
1.6888925389857803 0.0 8.0 0.0 3:1.0 134:1.0 263:1.0 278:1.0 756:1.0 
0.0 1.6661106100618068 5.46500204154704 1.4878435169176938 7:1.0 11:1.0 25:1.0 35:1.0 39:1.0 50:2.0 97:1.0 100:1.0 106:1.0 149:1.0 284:1.0 356:1.0 938:1.0 1000:1.0 1315:1.0 3599:1.0 4690:1.0 6251:1.0 7491:1.0 15154:1.0 
0.0 0.0 0.0 0.45611795467140226 3:1.0 11:1.0 25:1.0 29:1.0 56:1.0 153:1.0 217:1.0 639:1.0 815:1.0 875:1.0 1047:1.0 1052:1.0 2201:1.0 2263:1.0 3644:1.0 4105:1.0 4368:1.0 5112:1.0 7134:1.0 13360:1.0 
0.0 0.9507978410711667 0.8225111584499433 0.0 3:1.0 14:1.0 15:1.0 50:1.0 64:3.0 65:3.0 90:3.0 100:1.0 165:1.0 173:3.0 183:1.0 255:1.0 375:1.0 438:1.0 622:3.0 788:3.0 993:1.0 3003:1.0 3790:1.0 3858:2.0 6261:1.0 10714:2.0 20061:1.0 23252:1.0 30848:1.0 32356:1.0 
3.4424698547738966 1.7919709620548856 0.0 0.0 39:1.0 109:1.0 182:1.0 367:2.0 1121:1.0 1312:1.0 1688:1.0 5194:2.0 9432:1.0 10122:1.0 21555:1.0 
0.0 8.0 8.0 0.4791344623717823 3:1.0 11:1.0 25:1.0 28:2.0 217:1.0 218:1.0 356:1.0 413:1.0 648:1.0 1219:1.0 1879:1.0 5532:1.0 
2.138461896879564 1.5546725787035267 0.0 0.0 14:1.0 15:1.0 25:1.0 26:1.0 32:1.0 39:2.0 82:1.0 97:2.0 142:2.0 182:1.0 217:1.0 255:1.0 323:1.0 416:1.0 568:1.0 726:1.0 833:1.0 936:1.0 1070:1.0 1148:1.0 2504:1.0 6720:1.0 17073:1.0 
6.002798560307586 0.0 3.444326299291457 0.0 9:1.0 14:1.0 15:1.0 39:1.0 151:1.0 217:1.0 266:1.0 278:1.0 659:1.0 673:1.0 971:1.0 1362:1.0 1870:1.0 3326:1.0 6905:1.0 
8.0 8.0 8.0 0.0 13:1.0 26:1.0 50:1.0 92:1.0 100:1.0 142:1.0 375:1.0 444:1.0 613:1.0 1564:1.0 2826:1.0 3239:1.0 4050:1.0 
0.29954419900616236 0.0 0.0 0.0 3:1.0 13:1.0 56:1.0 92:1.0 207:1.0 221:1.0 255:1.0 277:1.0 357:1.0 401:1.0 568:1.0 578:1.0 799:1.0 898:1.0 1701:1.0 1927:1.0 7385:1.0 22649:1.0 22650:1.0 22651:1.0 22652:1.0 22653:1.0 
8.0 3.4316715879265094 0.0 0.0 13:3.0 28:2.0 32:1.0 49:1.0 50:3.0 55:1.0 97:2.0 100:1.0 158:1.0 263:1.0 267:1.0 283:1.0 361:1.0 374:1.0 403:1.0 525:1.0 1890:1.0 2370:1.0 4537:1.0 
0.0 3.12643036819055 0.0 0.0 21:1.0 22:1.0 29:1.0 37:1.0 39:1.0 90:1.0 92:2.0 97:1.0 142:3.0 160:1.0 255:1.0 273:1.0 597:1.0 677:1.0 1262:1.0 1399:1.0 1526:1.0 1702:1.0 2088:1.0 2579:1.0 7262:1.0 13845:1.0 20919:1.0 
0.0 6.5572034111755455 0.0 0.0 11:1.0 13:1.0 39:1.0 66:1.0 1105:1.0 1330:1.0 15677:1.0 16714:1.0 30370:1.0 
0.0 0.0 0.0 0.7082764036267076 25:1.0 28:2.0 29:1.0 66:1.0 82:1.0 106:1.0 298:1.0 711:1.0 823:1.0 1686:1.0 2187:1.0 
1.369315912608273 0.7914624165089458 0.0 0.0 3:3.0 13:1.0 14:1.0 15:1.0 28:6.0 97:1.0 100:1.0 186:1.0 189:1.0 217:1.0 249:1.0 331:1.0 550:1.0 578:1.0 665:1.0 752:1.0 879:1.0 1900:1.0 2029:1.0 2401:1.0 3180:1.0 3181:1.0 
0.0 0.0 8.0 0.0 14:1.0 15:1.0 50:1.0 99:1.0 106:1.0 134:1.0 145:1.0 183:1.0 202:1.0 227:1.0 267:1.0 
0.0 8.0 0.0 0.0 3:1.0 11:1.0 13:2.0 14:1.0 15:1.0 142:1.0 157:1.0 217:1.0 249:1.0 447:1.0 505:1.0 833:1.0 985:1.0 4264:1.0 8965:1.0 
0.0 0.0 4.800092513378748 0.0 50:1.0 142:1.0 211:1.0 521:1.0 1019:1.0 1335:1.0 
1.4730777520688738 0.0 0.4143276963287027 0.0 4:1.0 14:1.0 15:1.0 28:2.0 32:1.0 50:2.0 56:1.0 66:1.0 92:1.0 106:1.0 110:1.0 138:1.0 145:1.0 183:1.0 278:1.0 286:1.0 298:1.0 315:1.0 405:1.0 619:1.0 942:1.0 1527:1.0 1588:1.0 1657:1.0 1776:1.0 1835:1.0 2368:1.0 3362:1.0 4007:1.0 
0.0 0.0 2.3973007990031485 0.0 9:1.0 14:1.0 15:1.0 28:2.0 29:2.0 32:3.0 64:1.0 82:1.0 83:1.0 84:1.0 99:1.0 100:2.0 133:1.0 149:1.0 162:1.0 388:1.0 673:1.0 799:1.0 895:1.0 1435:1.0 2070:1.0 6883:1.0 21519:1.0 
0.0 7.017453005276975 2.3383667996094215 1.7551584334238857 11:1.0 28:2.0 50:2.0 90:1.0 149:1.0 428:1.0 578:1.0 2630:1.0 6536:1.0 8785:1.0 
2.090557555094508 5.504589018447203 2.562124683858686 0.22485758865836128 3:1.0 14:1.0 15:1.0 27:1.0 30:1.0 34:1.0 35:1.0 56:3.0 100:1.0 149:1.0 174:1.0 177:1.0 249:1.0 255:2.0 394:1.0 1474:1.0 1606:1.0 2523:1.0 2685:1.0 2893:1.0 4362:1.0 6386:1.0 8009:1.0 
0.0 0.0 2.176548361708514 1.2415864484504837 14:1.0 15:1.0 82:1.0 97:1.0 134:1.0 359:1.0 367:1.0 407:1.0 585:1.0 703:1.0 1365:1.0 1503:1.0 1504:1.0 
0.0 0.0 8.0 0.0 9:1.0 32:1.0 92:1.0 134:1.0 136:1.0 1419:1.0 4036:1.0 
0.0 8.0 8.0 1.1518984033025035 3:1.0 7:1.0 26:1.0 29:1.0 149:1.0 290:1.0 507:1.0 1611:1.0 1871:1.0 
0.0 4.161753283938423 0.0 0.0 3:1.0 14:1.0 15:1.0 25:1.0 26:2.0 28:2.0 39:1.0 66:1.0 90:2.0 92:1.0 249:1.0 364:1.0 460:1.0 1148:1.0 1333:1.0 1599:1.0 1891:1.0 2113:1.0 2392:1.0 2800:1.0 3276:1.0 3522:1.0 4685:1.0 5373:1.0 5670:1.0 5684:1.0 
0.0 1.0241680160077211 0.49288505398905275 0.0 3:1.0 7:1.0 13:3.0 14:1.0 15:1.0 26:2.0 74:1.0 162:1.0 202:2.0 217:1.0 249:1.0 374:2.0 506:1.0 576:1.0 623:1.0 1148:1.0 1333:1.0 1364:1.0 2762:1.0 21505:1.0 24997:1.0 
8.0 8.0 0.0 0.12833538165487296 7:1.0 13:2.0 274:1.0 909:1.0 4123:1.0 18603:1.0 18604:1.0 
1.6083191988028074 3.366104607255388 0.0 0.0 14:1.0 15:1.0 28:2.0 50:1.0 51:1.0 64:1.0 68:1.0 69:1.0 92:2.0 107:1.0 167:1.0 217:1.0 255:1.0 494:1.0 506:1.0 560:1.0 712:1.0 855:1.0 964:1.0 1209:1.0 2075:1.0 2378:1.0 3223:1.0 26452:1.0 
7.538507017974034 8.0 0.0 0.0 3:1.0 9:1.0 11:1.0 71:1.0 217:1.0 769:1.0 770:1.0 1487:1.0 4766:1.0 8837:1.0 20127:1.0 32238:1.0 
0.0 3.2849396507398656 0.0 0.0 3:3.0 28:2.0 754:2.0 1850:1.0 3412:1.0 9286:1.0 12118:1.0 
2.0935058487931784 3.806880398403489 8.0 0.0 134:1.0 165:1.0 263:1.0 353:1.0 2329:1.0 
2.9227983738695587 6.790314131966753 2.379923261922696 0.0 14:2.0 15:2.0 26:1.0 29:1.0 32:1.0 39:1.0 56:2.0 110:1.0 160:1.0 217:1.0 314:1.0 488:1.0 799:1.0 1465:1.0 3540:1.0 5263:1.0 5357:2.0 27750:1.0 
8.0 0.0 0.0 0.0 13:2.0 28:2.0 100:1.0 207:1.0 263:1.0 367:1.0 403:1.0 430:1.0 901:1.0 1051:1.0 1173:1.0 1325:1.0 
8.0 8.0 8.0 8.0 66:1.0 68:1.0 
2.1383646564391086 8.0 4.738604865703716 0.0 7:1.0 11:1.0 29:1.0 90:2.0 97:1.0 217:1.0 594:1.0 815:1.0 2181:1.0 2204:1.0 2454:1.0 9658:1.0 12313:1.0 12891:1.0 12892:1.0 12893:1.0 
4.086782110250142 4.771764807531828 4.537395230768827 0.0 4:1.0 13:1.0 28:2.0 50:4.0 142:1.0 151:1.0 173:1.0 375:1.0 565:1.0 1304:1.0 2911:1.0 11235:1.0 15646:1.0 15707:1.0 15708:1.0 
0.0 0.08728721446836543 0.0 0.0 9:1.0 14:1.0 15:1.0 50:2.0 74:1.0 92:1.0 97:1.0 106:1.0 134:1.0 145:1.0 284:1.0 333:1.0 356:1.0 425:1.0 1419:1.0 4099:1.0 
0.0 2.9854711357419035 0.0 0.31884790379419176 14:1.0 15:1.0 56:1.0 82:2.0 106:1.0 133:1.0 173:1.0 278:1.0 340:1.0 503:1.0 620:1.0 899:1.0 900:1.0 907:1.0 952:1.0 1116:1.0 1289:1.0 1302:1.0 1851:1.0 1886:1.0 
8.0 8.0 4.702539227297652 2.407650848752313 21:1.0 29:1.0 32:2.0 68:1.0 74:1.0 83:1.0 84:1.0 87:1.0 90:2.0 96:2.0 100:1.0 110:1.0 1045:1.0 1462:1.0 2998:1.0 6582:1.0 
0.0 8.0 0.0 0.0 11:1.0 13:1.0 26:1.0 173:1.0 274:1.0 15713:1.0 15928:1.0 33324:1.0 33325:1.0 
7.611511445130515 8.0 1.1049903793045044 0.24430641012835416 28:2.0 32:1.0 39:1.0 53:1.0 56:1.0 74:1.0 82:1.0 92:2.0 98:1.0 106:1.0 142:1.0 150:1.0 169:1.0 182:1.0 183:1.0 217:1.0 255:1.0 294:1.0 568:1.0 805:1.0 1394:1.0 1464:1.0 1548:1.0 2040:1.0 11294:1.0 
6.422465402522049 0.2292667947839439 0.0 0.0 9:1.0 13:1.0 26:1.0 32:3.0 39:1.0 50:1.0 56:2.0 70:1.0 99:1.0 105:1.0 200:1.0 217:1.0 291:1.0 527:1.0 534:1.0 632:1.0 676:1.0 887:1.0 907:1.0 1098:1.0 1472:1.0 1571:1.0 1574:1.0 4267:1.0 6800:1.0 8234:1.0 
6.734710739218778 0.0 0.0 0.0 26:1.0 28:1.0 29:1.0 32:1.0 83:1.0 92:1.0 217:1.0 278:1.0 331:2.0 605:1.0 1320:1.0 12130:1.0 
0.0 8.0 0.0 0.0 11:1.0 26:1.0 39:1.0 66:1.0 97:1.0 151:1.0 407:1.0 859:1.0 5688:1.0 
0.2466507371441119 2.9651509164325094 8.0 0.0 14:1.0 15:1.0 29:1.0 142:1.0 217:1.0 315:1.0 358:2.0 534:2.0 1393:1.0 27611:1.0 27612:1.0 
8.0 8.0 8.0 0.0 137:1.0 1139:1.0 
0.0 2.161122117011894 0.0 0.0 3:2.0 11:1.0 26:1.0 66:1.0 146:1.0 428:1.0 1292:1.0 32372:1.0 32373:1.0 
0.0 2.6621972879480373 0.0 0.0 14:1.0 15:1.0 26:1.0 29:1.0 56:1.0 140:1.0 158:1.0 375:1.0 494:1.0 619:1.0 676:1.0 793:1.0 2552:1.0 3046:1.0 
8.0 8.0 7.148199159872158 2.295773164562727 3:1.0 14:1.0 15:1.0 22:1.0 39:1.0 50:3.0 90:1.0 200:1.0 249:1.0 365:1.0 374:1.0 525:1.0 2012:1.0 2251:1.0 3276:1.0 
1.9161402955193534 8.0 3.7727040082474796 0.0 3:1.0 11:1.0 13:1.0 28:2.0 97:1.0 142:1.0 217:1.0 362:1.0 1894:1.0 2034:1.0 4781:1.0 10107:1.0 16101:1.0 22998:1.0 25848:1.0 25849:1.0 
7.433987871180059 8.0 8.0 0.0 3:1.0 11:1.0 64:1.0 92:1.0 217:1.0 3799:1.0 4395:1.0 
0.25869292220292 0.0 4.818669464454008 0.0 13:2.0 26:1.0 43:1.0 44:1.0 72:1.0 134:1.0 145:1.0 174:1.0 255:1.0 609:1.0 826:1.0 12224:1.0 12225:1.0 
0.0 8.0 0.0 0.0 92:1.0 133:1.0 211:1.0 
2.3351854278933386 8.0 0.07343126831083181 0.0 11:1.0 28:2.0 90:1.0 217:1.0 218:1.0 764:1.0 1651:1.0 7755:1.0 
0.0 2.1702105055132037 0.0 0.0 3:1.0 11:1.0 13:2.0 28:2.0 29:1.0 109:1.0 323:1.0 478:1.0 604:1.0 648:1.0 852:1.0 4818:1.0 20088:1.0 20534:1.0 20535:1.0 
8.0 8.0 8.0 0.0 26:1.0 29:1.0 32:2.0 56:1.0 97:2.0 104:1.0 142:1.0 217:1.0 218:1.0 253:1.0 278:1.0 286:1.0 817:1.0 1304:1.0 2432:1.0 4338:1.0 5324:1.0 
8.0 8.0 8.0 0.0 3:1.0 13:1.0 28:6.0 97:1.0 100:1.0 177:1.0 217:1.0 7013:1.0 9526:1.0 40148:1.0 
0.0 0.0 4.9690963131854 0.0 14:1.0 15:1.0 32:1.0 82:1.0 86:1.0 97:1.0 149:1.0 174:1.0 183:1.0 278:1.0 299:1.0 363:1.0 381:1.0 437:1.0 1934:1.0 10240:1.0 
0.0 0.0 0.076938851793292 0.0 3:1.0 14:1.0 15:1.0 22:1.0 26:1.0 28:2.0 29:1.0 39:1.0 49:1.0 92:1.0 97:2.0 110:1.0 158:1.0 202:1.0 223:1.0 297:1.0 407:1.0 436:1.0 599:1.0 683:1.0 1121:1.0 1779:1.0 4716:1.0 5177:1.0 5754:1.0 8359:1.0 13880:1.0 
8.0 4.546254193365457 8.0 0.0 3:2.0 14:2.0 15:2.0 26:1.0 32:1.0 35:1.0 50:1.0 62:1.0 100:1.0 101:1.0 146:1.0 151:1.0 174:1.0 180:1.0 249:2.0 381:1.0 554:1.0 1027:1.0 1071:1.0 5661:1.0 13123:1.0 
0.0 5.576151296609699 0.8865444542345327 0.0 3:1.0 11:1.0 22:1.0 28:2.0 50:3.0 56:1.0 145:1.0 149:1.0 299:1.0 842:1.0 1951:1.0 2029:1.0 3366:1.0 12627:1.0 16096:1.0 19185:1.0 19186:1.0 
1.5536941554121315 1.5256391054596126 0.0 0.0 9:1.0 13:1.0 14:1.0 15:1.0 26:2.0 28:2.0 66:1.0 90:1.0 150:1.0 249:1.0 427:1.0 505:1.0 597:1.0 682:1.0 736:1.0 774:1.0 869:1.0 1613:1.0 2362:1.0 3275:1.0 6834:1.0 7056:1.0 12251:1.0 12252:1.0 12253:1.0 
0.0 0.0 2.951502511146417 0.0 3:1.0 13:1.0 22:1.0 26:1.0 29:1.0 32:1.0 49:1.0 50:1.0 100:1.0 146:1.0 150:1.0 277:1.0 470:1.0 538:1.0 626:1.0 670:2.0 793:1.0 1309:1.0 2349:1.0 2651:1.0 3505:1.0 3552:1.0 42995:1.0 
8.0 8.0 8.0 0.661090079516027 14:1.0 15:1.0 32:1.0 97:1.0 182:1.0 217:1.0 255:1.0 370:1.0 2768:1.0 4798:1.0 
0.0 1.608344594813475 0.0 0.0 28:1.0 66:1.0 649:1.0 1711:1.0 1862:1.0 2242:1.0 4547:1.0 22631:1.0 30370:1.0 
6.6108012555695 8.0 7.10775881257611 0.0 3:2.0 26:2.0 28:2.0 39:1.0 100:1.0 137:1.0 142:1.0 202:1.0 470:1.0 852:1.0 892:1.0 1097:1.0 1148:1.0 3084:1.0 4063:1.0 4362:1.0 4684:1.0 6469:1.0 11533:1.0 30099:1.0 
3.195704188713697 0.0 0.0 0.0 21:1.0 22:1.0 26:1.0 29:1.0 32:1.0 44:1.0 97:1.0 145:1.0 232:1.0 265:1.0 267:1.0 278:1.0 364:1.0 367:1.0 428:1.0 534:1.0 555:1.0 790:1.0 1070:1.0 1336:1.0 1468:1.0 1805:1.0 7324:1.0 12868:1.0 
0.272180960986671 3.9191123716751335 0.0 0.041799307163725166 12:1.0 397:1.0 423:1.0 1208:6.0 1393:1.0 1759:1.0 1855:1.0 1856:1.0 1857:1.0 1858:1.0 1859:1.0 1860:1.0 1861:1.0 1862:1.0 1863:1.0 
0.0 0.0 0.0 0.675524299561172 21:1.0 22:1.0 26:2.0 28:2.0 179:1.0 446:1.0 452:1.0 686:1.0 2301:1.0 2884:1.0 5993:1.0 13604:1.0 
8.0 8.0 5.348995425151605 0.4733733851156274 26:2.0 50:2.0 66:1.0 2617:1.0 3605:1.0 4019:1.0 
8.0 8.0 8.0 1.9732545937974457 9:1.0 28:2.0 29:1.0 50:2.0 56:1.0 68:1.0 97:1.0 142:2.0 146:1.0 151:1.0 200:1.0 202:1.0 273:1.0 375:1.0 407:1.0 585:1.0 605:1.0 619:1.0 948:1.0 1036:1.0 4028:1.0 9097:1.0 
0.0 3.6451374305180746 0.0 0.0 3:4.0 14:1.0 15:1.0 25:1.0 26:1.0 28:2.0 32:1.0 53:1.0 107:1.0 142:1.0 217:2.0 249:1.0 361:1.0 362:1.0 500:1.0 517:1.0 992:1.0 1080:1.0 1590:1.0 1613:1.0 1756:1.0 13648:1.0 18205:1.0 26909:1.0 
0.0 8.0 8.0 0.0 11:1.0 13:1.0 26:1.0 64:1.0 65:1.0 90:1.0 217:1.0 247:1.0 30532:1.0 
6.863064820218268 3.1559534349515466 5.019036234331815 0.0 3:1.0 4:1.0 11:1.0 28:2.0 29:1.0 56:1.0 204:1.0 217:3.0 515:1.0 1600:1.0 2578:1.0 4766:1.0 5895:1.0 11138:1.0 19650:1.0 19651:1.0 19652:1.0 
7.716923764818356 5.320456392780666 3.3520898357478757 0.0 9:2.0 22:1.0 26:1.0 32:1.0 39:1.0 90:2.0 92:1.0 97:1.0 107:1.0 217:1.0 374:1.0 416:1.0 440:1.0 740:1.0 907:1.0 971:1.0 1444:1.0 1565:1.0 2090:1.0 2141:1.0 4310:1.0 4339:1.0 5174:1.0 8196:1.0 9316:1.0 
8.0 8.0 0.0 0.3592073263859577 14:1.0 15:1.0 66:1.0 145:1.0 855:1.0 
8.0 8.0 0.0 5.010490779475158 66:1.0 150:1.0 1461:1.0 2016:1.0 2781:1.0 6831:1.0 16393:1.0 
0.34400969107991086 0.0 0.0 0.1871694635357737 7:1.0 14:1.0 15:1.0 26:2.0 39:1.0 66:1.0 72:2.0 82:1.0 97:1.0 1365:1.0 2425:1.0 2800:1.0 32814:1.0 
8.0 0.0 0.0 0.0 13:1.0 72:1.0 106:1.0 267:1.0 375:1.0 452:1.0 2849:1.0 7863:1.0 
1.791966647725261 0.0 0.9741834144510185 0.0 13:1.0 22:1.0 28:10.0 50:1.0 56:1.0 92:1.0 134:1.0 142:1.0 150:1.0 151:1.0 180:1.0 263:1.0 286:1.0 291:1.0 298:1.0 365:1.0 664:1.0 703:1.0 774:1.0 807:1.0 1308:1.0 1557:1.0 4584:1.0 17809:1.0 17810:1.0 
1.4317512880396086 0.0 4.300461215867973 1.0050525276377296 14:1.0 15:1.0 32:2.0 33:1.0 82:2.0 97:1.0 100:1.0 106:1.0 134:1.0 165:1.0 221:1.0 266:1.0 267:1.0 293:1.0 430:1.0 510:1.0 605:1.0 793:1.0 948:1.0 1816:1.0 3688:1.0 4270:1.0 11527:1.0 
0.5637542976107811 0.0 0.0 0.1346085245759194 14:1.0 15:1.0 22:1.0 39:1.0 49:1.0 585:1.0 1431:1.0 1526:1.0 4319:1.0 5909:1.0 6831:1.0 
8.0 8.0 0.0 0.0 13:1.0 23:1.0 32:1.0 34:1.0 35:1.0 53:1.0 66:1.0 99:1.0 107:1.0 145:1.0 659:1.0 670:1.0 1028:1.0 1927:1.0 2471:1.0 3223:1.0 11482:1.0 17456:1.0 
2.781859821536314 4.328100228172477 0.0 2.1804657272594072 7:1.0 14:1.0 15:1.0 26:1.0 39:1.0 56:1.0 64:1.0 100:2.0 173:1.0 277:1.0 291:1.0 322:1.0 401:1.0 440:1.0 447:1.0 470:1.0 622:1.0 792:1.0 1435:1.0 1461:1.0 2557:1.0 2973:1.0 5178:1.0 12752:1.0 14999:1.0 15000:1.0 
0.0 1.6242352976835701 0.0 0.0 14:1.0 15:1.0 28:2.0 57:1.0 74:1.0 99:1.0 106:3.0 145:2.0 150:1.0 151:1.0 375:1.0 406:1.0 558:1.0 663:1.0 899:1.0 907:1.0 948:1.0 25144:1.0 
0.8839957227468195 1.5602367697537682 0.0 0.11985816241430435 22:1.0 23:1.0 26:3.0 28:2.0 43:1.0 56:1.0 92:1.0 97:1.0 99:1.0 150:1.0 174:1.0 217:1.0 255:1.0 407:1.0 726:1.0 796:1.0 983:1.0 1172:1.0 1173:1.0 3024:1.0 3561:1.0 3562:1.0 3563:1.0 3564:1.0 3565:1.0 
5.838379246413143 4.450979046974269 1.565864244014403 0.0 3:1.0 11:1.0 14:1.0 15:1.0 21:1.0 22:1.0 25:1.0 26:1.0 50:2.0 90:2.0 100:1.0 139:1.0 143:1.0 173:1.0 249:1.0 253:1.0 284:1.0 550:1.0 619:1.0 1167:1.0 2081:1.0 4314:1.0 7103:1.0 
0.0 0.0 3.1628478868525245 0.0 26:1.0 28:2.0 31:1.0 106:1.0 110:1.0 134:1.0 217:1.0 356:1.0 361:1.0 938:1.0 960:1.0 1029:1.0 1081:1.0 4820:1.0 
5.577541844457802 8.0 8.0 0.3169537187106421 3:1.0 90:2.0 142:1.0 217:1.0 218:1.0 374:1.0 394:1.0 502:1.0 1405:1.0 6461:1.0 
8.0 8.0 8.0 0.0 11:1.0 26:1.0 39:1.0 97:2.0 112:1.0 145:1.0 217:1.0 323:1.0 747:1.0 
1.4152627905129465 1.0248960935473714 0.0 0.0 22:1.0 25:1.0 32:1.0 82:4.0 97:1.0 106:3.0 365:1.0 525:1.0 1001:1.0 1834:1.0 2020:1.0 2377:1.0 34238:1.0 
2.718423831900696 3.656182882944208 0.0 0.0 26:2.0 28:2.0 34:2.0 39:1.0 66:2.0 92:1.0 97:2.0 107:1.0 142:1.0 291:1.0 295:1.0 340:1.0 367:1.0 416:2.0 899:2.0 1023:1.0 1148:1.0 1618:1.0 2557:1.0 6207:1.0 9572:2.0 
3.427696056198668 8.0 0.0 0.0 25:1.0 29:1.0 82:1.0 97:1.0 100:1.0 109:1.0 142:1.0 180:1.0 190:2.0 220:1.0 494:1.0 887:1.0 1016:1.0 3289:1.0 43352:1.0 
8.0 6.469109149242915 1.5912463342532943 2.6379651758851095 23:1.0 136:1.0 207:1.0 585:1.0 846:1.0 1231:1.0 1232:1.0 1613:1.0 
0.0 0.0 0.8294236606774467 0.0 3:1.0 13:1.0 14:2.0 15:2.0 64:3.0 92:1.0 133:1.0 136:2.0 142:1.0 149:1.0 189:1.0 249:1.0 255:1.0 263:1.0 265:1.0 367:1.0 585:2.0 1121:1.0 1333:1.0 3737:1.0 10824:1.0 12708:1.0 18703:1.0 22933:1.0 26970:1.0 
0.2257447601879653 8.0 8.0 0.7458390556955292 25:1.0 50:1.0 90:1.0 149:1.0 204:1.0 1063:1.0 1941:1.0 2474:1.0 5715:1.0 
0.0 0.0 0.4602005053054068 0.0 14:1.0 97:1.0 142:1.0 145:1.0 149:1.0 361:1.0 938:1.0 1019:1.0 2638:1.0 4918:1.0 14583:1.0 19199:1.0 
8.0 8.0 8.0 1.1048346000364644 3:1.0 13:1.0 14:1.0 15:1.0 39:1.0 106:1.0 217:1.0 249:1.0 295:1.0 375:1.0 428:1.0 973:1.0 2534:1.0 41953:1.0 
0.0 0.5378656590854007 0.0 0.0 7:1.0 11:1.0 26:2.0 29:1.0 217:1.0 248:1.0 255:1.0 382:1.0 634:1.0 875:1.0 1070:1.0 1262:1.0 1655:1.0 2006:1.0 2401:1.0 6132:1.0 8954:1.0 10521:1.0 13298:1.0 16030:1.0 
0.0 0.0 1.8686575073454448 1.5777386178432646 3:1.0 9:1.0 14:3.0 15:3.0 21:1.0 22:1.0 25:1.0 29:1.0 32:1.0 97:1.0 142:1.0 153:1.0 183:1.0 249:1.0 293:1.0 367:1.0 1017:1.0 1704:1.0 7961:1.0 
0.0 0.0 2.8738033114006396 0.0 7:1.0 13:1.0 14:1.0 15:1.0 29:1.0 32:1.0 49:1.0 56:1.0 82:1.0 107:1.0 142:1.0 149:1.0 173:2.0 180:1.0 190:1.0 202:1.0 263:1.0 621:1.0 938:1.0 1102:1.0 12718:1.0 
0.0 1.764566333630339 0.0 0.0 3:1.0 11:1.0 28:2.0 29:1.0 56:1.0 90:1.0 92:1.0 286:1.0 288:1.0 375:1.0 578:1.0 579:1.0 835:1.0 875:1.0 900:1.0 1245:1.0 2540:1.0 3374:1.0 5112:1.0 18661:1.0 
8.0 8.0 4.883251180233625 0.0 26:1.0 29:1.0 32:1.0 39:1.0 217:1.0 266:1.0 295:1.0 440:1.0 568:1.0 726:1.0 779:1.0 1043:1.0 3686:1.0 
4.841855212672127 0.0 0.0 0.0 9:1.0 21:1.0 22:1.0 28:2.0 32:3.0 36:1.0 44:1.0 56:1.0 97:2.0 100:1.0 110:1.0 142:1.0 173:1.0 174:1.0 255:1.0 263:2.0 278:1.0 359:1.0 363:1.0 440:1.0 1465:1.0 1686:1.0 1954:1.0 3104:1.0 3147:1.0 4964:1.0 16070:1.0 
8.0 5.49416448472274 8.0 0.0 14:1.0 15:1.0 64:1.0 106:1.0 134:1.0 145:1.0 177:1.0 183:1.0 265:1.0 933:1.0 
8.0 8.0 2.821650123750182 0.2211130517199449 3:1.0 14:1.0 15:1.0 22:1.0 26:1.0 31:1.0 34:1.0 49:1.0 56:2.0 68:1.0 100:1.0 107:1.0 138:1.0 143:1.0 200:1.0 249:1.0 294:1.0 295:1.0 359:1.0 365:1.0 367:1.0 379:1.0 408:1.0 425:1.0 2377:1.0 2656:1.0 8383:1.0 
0.0 4.027478994440441 6.707302084367094 0.018690904954821393 14:7.0 15:7.0 145:1.0 180:1.0 217:1.0 1508:1.0 1964:1.0 8063:1.0 
0.0 0.0 4.623829061367402 0.0 3:1.0 11:1.0 14:1.0 15:1.0 29:2.0 50:1.0 92:1.0 109:1.0 183:1.0 249:1.0 263:1.0 280:1.0 440:1.0 585:1.0 736:1.0 1468:1.0 1870:1.0 2392:1.0 4872:1.0 8677:1.0 
8.0 8.0 2.7148421680596617 1.1796379996603685 7:1.0 21:1.0 26:1.0 28:1.0 92:1.0 100:1.0 174:1.0 367:1.0 2136:1.0 13874:1.0 13902:1.0 24270:1.0 
0.0 0.0 1.233006045963408 0.0 7:1.0 9:2.0 14:1.0 15:1.0 26:2.0 39:1.0 66:1.0 100:1.0 106:1.0 150:1.0 279:1.0 694:1.0 718:1.0 1411:1.0 2085:1.0 2752:1.0 
8.0 1.8181930833755124 0.0 0.0 14:1.0 15:1.0 26:1.0 32:2.0 34:1.0 50:1.0 55:1.0 56:1.0 64:1.0 92:1.0 139:1.0 200:1.0 207:1.0 470:1.0 558:1.0 710:1.0 774:1.0 793:1.0 888:1.0 1847:1.0 2074:1.0 6557:1.0 
0.0 0.0 8.0 0.0 14:1.0 15:1.0 32:1.0 50:1.0 106:1.0 134:1.0 362:1.0 523:1.0 
3.101869986704153 8.0 0.5592916207396451 0.20042663422827614 13:2.0 28:2.0 66:1.0 90:1.0 92:1.0 97:1.0 142:1.0 200:1.0 248:1.0 271:1.0 367:1.0 430:1.0 452:1.0 510:1.0 570:1.0 1818:1.0 2210:1.0 10724:1.0 21034:1.0 
8.0 6.899682991739362 0.0 0.0 14:1.0 15:1.0 22:1.0 25:1.0 26:1.0 39:1.0 49:1.0 50:1.0 65:1.0 97:1.0 106:1.0 145:1.0 363:1.0 430:1.0 2370:1.0 8907:1.0 9237:1.0 
8.0 8.0 0.0 0.0 21:1.0 22:1.0 32:1.0 92:1.0 145:1.0 323:1.0 353:1.0 354:1.0 355:1.0 
8.0 8.0 0.0 0.0 14:1.0 15:1.0 22:1.0 49:1.0 100:1.0 106:1.0 107:1.0 182:1.0 286:1.0 295:1.0 620:1.0 888:1.0 
8.0 0.3744171476933378 2.6836464603054946 0.5080574515010775 13:1.0 29:1.0 56:1.0 74:1.0 100:1.0 157:1.0 311:2.0 355:1.0 505:1.0 620:1.0 792:1.0 793:1.0 868:1.0 900:1.0 1312:1.0 2016:1.0 2588:1.0 3242:1.0 
0.0 3.1700898895021195 0.0 0.0 13:1.0 14:1.0 15:1.0 26:2.0 29:1.0 39:2.0 74:1.0 90:1.0 107:1.0 189:1.0 249:1.0 362:1.0 524:1.0 1152:1.0 1364:1.0 1375:1.0 1617:1.0 4628:1.0 6370:1.0 8507:1.0 
0.0 2.502512608148588 0.0 0.0 7:1.0 28:2.0 29:2.0 56:1.0 109:1.0 142:1.0 162:1.0 173:1.0 217:1.0 362:1.0 676:1.0 1028:1.0 1110:1.0 1811:1.0 2793:3.0 4387:1.0 4388:1.0 5439:1.0 
8.0 8.0 8.0 0.4653853394850585 13:4.0 25:1.0 29:1.0 39:1.0 82:1.0 90:1.0 103:1.0 145:1.0 171:1.0 189:1.0 217:1.0 279:1.0 357:1.0 367:1.0 1316:1.0 2025:1.0 2278:1.0 4474:1.0 36603:1.0 
8.0 8.0 8.0 0.13026620652693022 9:1.0 23:1.0 26:1.0 31:1.0 56:1.0 92:1.0 110:1.0 137:1.0 142:1.0 182:1.0 361:1.0 367:1.0 605:1.0 805:1.0 1212:1.0 1326:1.0 1830:1.0 3326:1.0 4825:1.0 18483:1.0 
0.782987812437329 0.0 0.0 0.0 3:1.0 11:1.0 13:1.0 15:1.0 17:1.0 28:6.0 100:1.0 146:1.0 1157:1.0 2091:1.0 3327:1.0 
